{"learner":{"attributes":{"best_iteration":"202","best_score":"0.16764302263938777","scikit_learn":"{\"_estimator_type\": \"classifier\"}"},"feature_names":["mp_PT","mm_PT","Bc_ENDVERTEX_CHI2","Bc_IPCHI2_OWNPV","Bc_FD_OWNPV","Jpsi_FD_ORIVX","D0_FD_ORIVX"],"feature_types":["float","float","float","float","float","float","float"],"gradient_booster":{"model":{"gbtree_model_param":{"num_parallel_tree":"1","num_trees":"223"},"iteration_indptr":[0,1,2,3,4,5,6,7,8,9,10,11,12,13,14,15,16,17,18,19,20,21,22,23,24,25,26,27,28,29,30,31,32,33,34,35,36,37,38,39,40,41,42,43,44,45,46,47,48,49,50,51,52,53,54,55,56,57,58,59,60,61,62,63,64,65,66,67,68,69,70,71,72,73,74,75,76,77,78,79,80,81,82,83,84,85,86,87,88,89,90,91,92,93,94,95,96,97,98,99,100,101,102,103,104,105,106,107,108,109,110,111,112,113,114,115,116,117,118,119,120,121,122,123,124,125,126,127,128,129,130,131,132,133,134,135,136,137,138,139,140,141,142,143,144,145,146,147,148,149,150,151,152,153,154,155,156,157,158,159,160,161,162,163,164,165,166,167,168,169,170,171,172,173,174,175,176,177,178,179,180,181,182,183,184,185,186,187,188,189,190,191,192,193,194,195,196,197,198,199,200,201,202,203,204,205,206,207,208,209,210,211,212,213,214,215,216,217,218,219,220,221,222,223],"tree_info":[0,0,0,0,0,0,0,0,0,0,0,0,0,0,0,0,0,0,0,0,0,0,0,0,0,0,0,0,0,0,0,0,0,0,0,0,0,0,0,0,0,0,0,0,0,0,0,0,0,0,0,0,0,0,0,0,0,0,0,0,0,0,0,0,0,0,0,0,0,0,0,0,0,0,0,0,0,0,0,0,0,0,0,0,0,0,0,0,0,0,0,0,0,0,0,0,0,0,0,0,0,0,0,0,0,0,0,0,0,0,0,0,0,0,0,0,0,0,0,0,0,0,0,0,0,0,0,0,0,0,0,0,0,0,0,0,0,0,0,0,0,0,0,0,0,0,0,0,0,0,0,0,0,0,0,0,0,0,0,0,0,0,0,0,0,0,0,0,0,0,0,0,0,0,0,0,0,0,0,0,0,0,0,0,0,0,0,0,0,0,0,0,0,0,0,0,0,0,0,0,0,0,0,0,0,0,0,0,0,0,0,0,0,0,0,0,0,0,0,0,0,0,0],"trees":[{"base_weights":[5.6073767E-1,-2.2200546E0,7.468854E-1,-5.088421E-1,-3.9928112E0,9.010323E-1,-7.7811986E-1,7.821834E-4,-8.196415E-2,-2.521151E-1,-8.210125E-2,5.56303E-2,8.4407395E-3,-1.3436918E-1,-9.401477E-3],"categories":[],"categories_nodes":[],"categories_segments":[],"categories_sizes":[],"default_left":[0,0,0,0,0,0,0,0,0,0,0,0,0,0,0],"id":0,"left_children":[1,3,5,7,9,11,13,-1,-1,-1,-1,-1,-1,-1,-1],"loss_changes":[1.7108223E3,6.271659E2,7.283612E2,5.132669E1,9.886438E1,1.4623755E2,2.732708E2,0E0,0E0,0E0,0E0,0E0,0E0,0E0,0E0],"parents":[2147483647,0,0,1,1,2,2,3,3,4,4,5,5,6,6],"right_children":[2,4,6,8,10,12,14,-1,-1,-1,-1,-1,-1,-1,-1],"split_conditions":[7.339893E-1,1.4375173E0,2.3598704E0,6.838288E-2,2.720286E3,5.1673055E0,1.8202124E0,7.821834E-4,-8.196415E-2,-2.521151E-1,-8.210125E-2,5.56303E-2,8.4407395E-3,-1.3436918E-1,-9.401477E-3],"split_indices":[4,2,2,5,0,3,4,0,0,0,0,0,0,0,0],"split_type":[0,0,0,0,0,0,0,0,0,0,0,0,0,0,0],"sum_hessian":[3.300851E3,2.0641203E2,3.0944392E3,1.0568403E2,1.00728E2,2.8107397E3,2.8369934E2,6.8044975E1,3.7639053E1,8.639569E1,1.4332308E1,2.5745916E3,2.3614822E2,7.916256E1,2.0453677E2],"tree_param":{"num_deleted":"0","num_feature":"7","num_nodes":"15","size_leaf_vector":"1"}},{"base_weights":[5.417102E-1,-1.9170169E0,7.260435E-1,-7.935546E-1,-3.653684E0,9.145644E-1,-4.803282E-1,-8.742301E-2,4.3029413E-3,-2.464558E-1,-1.6065794E-1,5.6529902E-2,1.5319233E-2,-1.0387749E-1,2.5138417E-3],"categories":[],"categories_nodes":[],"categories_segments":[],"categories_sizes":[],"default_left":[0,0,0,0,0,0,0,0,0,0,0,0,0,0,0],"id":1,"left_children":[1,3,5,7,9,11,13,-1,-1,-1,-1,-1,-1,-1,-1],"loss_changes":[1.4655723E3,4.3723102E2,6.840818E2,8.7889E1,3.6436523E1,1.19617676E2,2.8399484E2,0E0,0E0,0E0,0E0,0E0,0E0,0E0,0E0],"parents":[2147483647,0,0,1,1,2,2,3,3,4,4,5,5,6,6],"right_children":[2,4,6,8,10,12,14,-1,-1,-1,-1,-1,-1,-1,-1],"split_conditions":[7.339893E-1,1.8310789E0,2.0686548E0,1.9644365E3,5.1877844E-1,4.820892E0,1.8202124E0,-8.742301E-2,4.3029413E-3,-2.464558E-1,-1.6065794E-1,5.6529902E-2,1.5319233E-2,-1.0387749E-1,2.5138417E-3],"split_indices":[4,2,2,0,4,3,4,0,0,0,0,0,0,0,0],"split_type":[0,0,0,0,0,0,0,0,0,0,0,0,0,0,0],"sum_hessian":[3.229579E3,2.24583E2,3.004996E3,1.3725117E2,8.7331825E1,2.599078E3,4.059184E2,7.412094E1,6.313024E1,4.743446E1,3.989736E1,2.341044E3,2.580339E2,1.1398909E2,2.9192932E2],"tree_param":{"num_deleted":"0","num_feature":"7","num_nodes":"15","size_leaf_vector":"1"}},{"base_weights":[5.234051E-1,-1.3710918E0,7.4283457E-1,-1.6522606E-1,-2.5843735E0,8.67928E-1,-7.9003525E-1,6.5645636E-3,-9.379044E-2,-1.668672E-1,-4.3988436E-2,5.3877346E-2,7.6970323E-3,-9.67409E-2,4.228553E-3],"categories":[],"categories_nodes":[],"categories_segments":[],"categories_sizes":[],"default_left":[0,0,0,0,0,0,0,0,0,0,0,0,0,0,0],"id":2,"left_children":[1,3,5,7,9,11,13,-1,-1,-1,-1,-1,-1,-1,-1],"loss_changes":[1.3143452E3,4.798753E2,5.4371985E2,6.8336975E1,9.452295E1,1.3743921E2,1.660751E2,0E0,0E0,0E0,0E0,0E0,0E0,0E0,0E0],"parents":[2147483647,0,0,1,1,2,2,3,3,4,4,5,5,6,6],"right_children":[2,4,6,8,10,12,14,-1,-1,-1,-1,-1,-1,-1,-1],"split_conditions":[8.8513386E-1,1.4375173E0,2.5904515E0,4.004166E0,2.720286E3,5.1673055E0,2.028732E3,6.5645636E-3,-9.379044E-2,-1.668672E-1,-4.3988436E-2,5.3877346E-2,7.6970323E-3,-9.67409E-2,4.228553E-3],"split_indices":[4,2,2,3,0,3,0,0,0,0,0,0,0,0,0],"split_type":[0,0,0,0,0,0,0,0,0,0,0,0,0,0,0],"sum_hessian":[3.158249E3,3.272873E2,2.8309617E3,1.6471513E2,1.6257216E2,2.6177666E3,2.1319519E2,1.3916385E2,2.5551283E1,1.3736743E2,2.5204737E1,2.3847756E3,2.3299098E2,1.0412134E2,1.09073845E2],"tree_param":{"num_deleted":"0","num_feature":"7","num_nodes":"15","size_leaf_vector":"1"}},{"base_weights":[5.05783E-1,-1.234682E0,7.2287846E-1,-1.5486184E-1,-2.243624E0,9.004242E-1,-3.3699366E-1,-5.750928E-2,1.6304044E-2,-1.4349991E-1,-4.0442523E-2,5.6198984E-2,2.1906216E-2,1.1903716E-2,-7.192352E-2],"categories":[],"categories_nodes":[],"categories_segments":[],"categories_sizes":[],"default_left":[0,0,0,0,0,0,0,0,0,0,0,0,0,0,0],"id":3,"left_children":[1,3,5,7,9,11,13,-1,-1,-1,-1,-1,-1,-1,-1],"loss_changes":[1.1680535E3,3.7327753E2,5.172294E2,6.237695E1,6.877832E1,9.6713745E1,1.9749844E2,0E0,0E0,0E0,0E0,0E0,0E0,0E0,0E0],"parents":[2147483647,0,0,1,1,2,2,3,3,4,4,5,5,6,6],"right_children":[2,4,6,8,10,12,14,-1,-1,-1,-1,-1,-1,-1,-1],"split_conditions":[8.8513386E-1,1.4375173E0,2.0686548E0,5.733197E-1,2.720286E3,4.2586303E0,2.6726615E0,-5.750928E-2,1.6304044E-2,-1.4349991E-1,-4.0442523E-2,5.6198984E-2,2.1906216E-2,1.1903716E-2,-7.192352E-2],"split_indices":[4,2,2,4,0,3,3,0,0,0,0,0,0,0,0],"split_type":[0,0,0,0,0,0,0,0,0,0,0,0,0,0,0],"sum_hessian":[3.087978E3,3.4194006E2,2.7460378E3,1.6572568E2,1.7621439E2,2.3521628E3,3.938749E2,5.6106655E1,1.09619026E2,1.5030609E2,2.5908295E1,2.0383539E3,3.1380902E2,2.4762743E2,1.4624748E2],"tree_param":{"num_deleted":"0","num_feature":"7","num_nodes":"15","size_leaf_vector":"1"}},{"base_weights":[4.8881462E-1,-7.3158365E-1,7.7844864E-1,1.7185445E-1,-1.7581719E0,9.0135485E-1,-3.8423014E-1,-4.4056665E-2,2.706102E-2,-1.3002637E-1,-4.436239E-2,5.690019E-2,2.9444542E-2,-2.671029E-3,-1.2220806E-1],"categories":[],"categories_nodes":[],"categories_segments":[],"categories_sizes":[],"default_left":[0,0,0,0,0,0,0,0,0,0,0,0,0,0,0],"id":4,"left_children":[1,3,5,7,9,11,13,-1,-1,-1,-1,-1,-1,-1,-1],"loss_changes":[1.0679169E3,5.379514E2,3.4915698E2,8.759626E1,1.3434784E2,7.73241E1,1.3795805E2,0E0,0E0,0E0,0E0,0E0,0E0,0E0,0E0],"parents":[2147483647,0,0,1,1,2,2,3,3,4,4,5,5,6,6],"right_children":[2,4,6,8,10,12,14,-1,-1,-1,-1,-1,-1,-1,-1],"split_conditions":[1.2690043E0,1.4375173E0,2.4297206E0,6.154839E-1,2.0792405E3,3.4837415E0,5.2679167E0,-4.4056665E-2,2.706102E-2,-1.3002637E-1,-4.436239E-2,5.690019E-2,2.9444542E-2,-2.671029E-3,-1.2220806E-1],"split_indices":[4,2,2,4,0,3,3,0,0,0,0,0,0,0,0],"split_type":[0,0,0,0,0,0,0,0,0,0,0,0,0,0,0],"sum_hessian":[3.0186362E3,5.787014E2,2.4399348E3,3.0825632E2,2.704451E2,2.206872E3,2.3306258E2,7.420091E1,2.340554E2,1.7738992E2,9.305517E1,1.7866974E3,4.201748E2,1.9617113E2,3.689145E1],"tree_param":{"num_deleted":"0","num_feature":"7","num_nodes":"15","size_leaf_vector":"1"}},{"base_weights":[4.7241598E-1,7.583169E-1,-6.8391556E-1,-8.866415E-1,8.4384596E-1,-1.7311445E0,1.0658395E-1,-7.0816725E-2,2.9029874E-2,5.289672E-2,1.1280703E-2,-1.2729384E-1,-4.5104083E-2,2.604332E-2,-4.70666E-2],"categories":[],"categories_nodes":[],"categories_segments":[],"categories_sizes":[],"default_left":[0,0,0,0,0,0,0,0,0,0,0,0,0,0,0],"id":5,"left_children":[1,3,5,7,9,11,13,-1,-1,-1,-1,-1,-1,-1,-1],"loss_changes":[9.763848E2,3.3378723E2,4.8503287E2,5.761679E1,1.1426538E2,1.1456421E2,1.08248116E2,0E0,0E0,0E0,0E0,0E0,0E0,0E0,0E0],"parents":[2147483647,0,0,1,1,2,2,3,3,4,4,5,5,6,6],"right_children":[2,4,6,8,10,12,14,-1,-1,-1,-1,-1,-1,-1,-1],"split_conditions":[1.9477146E0,6.352744E-1,1.798422E0,2.7387473E3,4.820892E0,2.0792405E3,3.620316E0,-7.0816725E-2,2.9029874E-2,5.289672E-2,1.1280703E-2,-1.2729384E-1,-4.5104083E-2,2.604332E-2,-4.70666E-2],"split_indices":[2,4,4,0,3,0,3,0,0,0,0,0,0,0,0],"split_type":[0,0,0,0,0,0,0,0,0,0,0,0,0,0,0],"sum_hessian":[2.950837E3,2.3661538E3,5.846831E2,1.1648382E2,2.24967E3,2.5098979E2,3.3369333E2,9.32747E1,2.3209122E1,2.005702E3,2.4396802E2,1.6453073E2,8.645905E1,2.4309302E2,9.060032E1],"tree_param":{"num_deleted":"0","num_feature":"7","num_nodes":"15","size_leaf_vector":"1"}},{"base_weights":[4.5655915E-1,-6.245979E-1,7.5007594E-1,2.0466204E-1,-1.4392904E0,8.733945E-1,-3.2094976E-1,1.7923828E-2,-1.1514348E-1,-1.0136352E-1,-2.2164129E-2,5.551403E-2,2.8938767E-2,-5.602721E-2,2.436313E-2],"categories":[],"categories_nodes":[],"categories_segments":[],"categories_sizes":[],"default_left":[0,0,0,0,0,0,0,0,0,0,0,0,0,0,0],"id":6,"left_children":[1,3,5,7,9,11,13,-1,-1,-1,-1,-1,-1,-1,-1],"loss_changes":[9.1611945E2,4.1688593E2,3.0006714E2,7.378837E1,1.06869995E2,7.057788E1,1.1544331E2,0E0,0E0,0E0,0E0,0E0,0E0,0E0,0E0],"parents":[2147483647,0,0,1,1,2,2,3,3,4,4,5,5,6,6],"right_children":[2,4,6,8,10,12,14,-1,-1,-1,-1,-1,-1,-1,-1],"split_conditions":[1.3118181E0,1.3911422E0,2.4297206E0,6.656008E0,2.3983262E3,3.396393E0,2.2013208E3,1.7923828E-2,-1.1514348E-1,-1.0136352E-1,-2.2164129E-2,5.551403E-2,2.8938767E-2,-5.602721E-2,2.436313E-2],"split_indices":[4,2,2,3,0,3,0,0,0,0,0,0,0,0,0],"split_type":[0,0,0,0,0,0,0,0,0,0,0,0,0,0,0],"sum_hessian":[2.8844143E3,6.156318E2,2.2687825E3,3.0545932E2,3.101725E2,2.0346914E3,2.3409114E2,2.9207477E2,1.3384554E1,2.3592213E2,7.4250336E1,1.6177421E3,4.1694928E2,1.24372856E2,1.09718285E2],"tree_param":{"num_deleted":"0","num_feature":"7","num_nodes":"15","size_leaf_vector":"1"}},{"base_weights":[4.4116473E-1,-5.799815E-1,7.3165566E-1,1.7017177E-1,-1.332395E0,8.907722E-1,-8.098054E-2,1.728263E-2,-9.433661E-2,-5.381168E-2,-1.1884159E-1,5.5132218E-2,2.6700249E-2,2.3096522E-2,-4.6571527E-2],"categories":[],"categories_nodes":[],"categories_segments":[],"categories_sizes":[],"default_left":[0,0,0,0,0,0,0,0,0,0,0,0,0,0,0],"id":7,"left_children":[1,3,5,7,9,11,13,-1,-1,-1,-1,-1,-1,-1,-1],"loss_changes":[8.3715936E2,3.5315015E2,2.8408667E2,7.5280334E1,8.910675E1,5.471814E1,1.2785668E2,0E0,0E0,0E0,0E0,0E0,0E0,0E0,0E0],"parents":[2147483647,0,0,1,1,2,2,3,3,4,4,5,5,6,6],"right_children":[2,4,6,8,10,12,14,-1,-1,-1,-1,-1,-1,-1,-1],"split_conditions":[1.3118181E0,1.4375173E0,2.0193748E0,6.020356E0,3.0816858E0,4.2586303E0,2.6726615E0,1.728263E-2,-9.433661E-2,-5.381168E-2,-1.1884159E-1,5.5132218E-2,2.6700249E-2,2.3096522E-2,-4.6571527E-2],"split_indices":[4,2,2,3,3,3,3,0,0,0,0,0,0,0,0],"split_type":[0,0,0,0,0,0,0,0,0,0,0,0,0,0,0],"sum_hessian":[2.8197686E3,6.242791E2,2.1954895E3,3.1299655E2,3.1128253E2,1.8359156E3,3.5957385E2,2.9267572E2,2.032083E1,2.0460588E2,1.0667665E2,1.5732794E3,2.626362E2,2.1666925E2,1.4290459E2],"tree_param":{"num_deleted":"0","num_feature":"7","num_nodes":"15","size_leaf_vector":"1"}},{"base_weights":[4.261728E-1,7.0593256E-1,-5.6811786E-1,-6.317971E-2,8.7771845E-1,-1.2189689E0,2.7287257E-1,1.3847799E-2,-6.0579084E-2,5.448339E-2,2.5772616E-2,-9.059197E-2,-1.3554259E-2,2.1016747E-2,-1.8390293E-1],"categories":[],"categories_nodes":[],"categories_segments":[],"categories_sizes":[],"default_left":[0,0,0,0,0,0,0,0,0,0,0,0,0,0,0],"id":8,"left_children":[1,3,5,7,9,11,13,-1,-1,-1,-1,-1,-1,-1,-1],"loss_changes":[7.6759955E2,2.8450354E2,3.3213348E2,1.19477486E2,5.4125122E1,1.2083783E2,8.759965E1,0E0,0E0,0E0,0E0,0E0,0E0,0E0,0E0],"parents":[2147483647,0,0,1,1,2,2,3,3,4,4,5,5,6,6],"right_children":[2,4,6,8,10,12,14,-1,-1,-1,-1,-1,-1,-1,-1],"split_conditions":[1.9477146E0,1.2690043E0,2.624926E0,3.2788737E0,4.2586303E0,2.3983262E3,1.307285E2,1.3847799E-2,-6.0579084E-2,5.448339E-2,2.5772616E-2,-9.059197E-2,-1.3554259E-2,2.1016747E-2,-1.8390293E-1],"split_indices":[2,4,4,3,3,0,6,0,0,0,0,0,0,0,0],"split_type":[0,0,0,0,0,0,0,0,0,0,0,0,0,0,0],"sum_hessian":[2.7570945E3,2.1519097E3,6.051846E2,3.930036E2,1.7589061E3,3.4090518E2,2.6427942E2,3.013297E2,9.167391E1,1.503603E3,2.5530309E2,2.4890486E2,9.200031E1,2.5822668E2,6.0527253E0],"tree_param":{"num_deleted":"0","num_feature":"7","num_nodes":"15","size_leaf_vector":"1"}},{"base_weights":[4.115617E-1,-5.8197147E-1,6.753122E-1,3.6754286E-1,-1.0294546E0,8.456016E-1,-1.0620733E-1,3.0224202E-2,-5.9247386E-2,-3.6366325E-2,-1.01800814E-1,5.290066E-2,2.3252668E-2,1.9880245E-2,-4.35862E-2],"categories":[],"categories_nodes":[],"categories_segments":[],"categories_sizes":[],"default_left":[0,0,0,0,0,0,0,0,0,0,0,0,0,0,0],"id":9,"left_children":[1,3,5,7,9,11,13,-1,-1,-1,-1,-1,-1,-1,-1],"loss_changes":[7.0728107E2,2.4105019E2,2.838463E2,4.1248154E1,1.1244614E2,5.8874756E1,1.1348682E2,0E0,0E0,0E0,0E0,0E0,0E0,0E0,0E0],"parents":[2147483647,0,0,1,1,2,2,3,3,4,4,5,5,6,6],"right_children":[2,4,6,8,10,12,14,-1,-1,-1,-1,-1,-1,-1,-1],"split_conditions":[1.1876907E0,9.471812E-1,2.0193748E0,5.1673055E0,1.7639482E-1,4.2586303E0,2.6726615E0,3.0224202E-2,-5.9247386E-2,-3.6366325E-2,-1.01800814E-1,5.290066E-2,2.3252668E-2,1.9880245E-2,-4.35862E-2],"split_indices":[4,2,2,3,5,3,3,0,0,0,0,0,0,0,0],"split_type":[0,0,0,0,0,0,0,0,0,0,0,0,0,0,0],"sum_hessian":[2.696584E3,5.65431E2,2.131153E3,1.8117485E2,3.8425616E2,1.7497983E3,3.8135474E2,1.6321198E2,1.7962862E1,2.5234976E2,1.3190642E2,1.4886299E3,2.611685E2,2.2558029E2,1.5577444E2],"tree_param":{"num_deleted":"0","num_feature":"7","num_nodes":"15","size_leaf_vector":"1"}},{"base_weights":[3.9732802E-1,-4.7880635E-1,6.7895764E-1,1.815891E-1,-1.0527004E0,8.082882E-1,-2.6991692E-1,-4.453954E-2,2.380849E-2,-8.280369E-2,-2.745088E-2,5.2335322E-2,2.482515E-2,-4.7317214E-2,2.347788E-2],"categories":[],"categories_nodes":[],"categories_segments":[],"categories_sizes":[],"default_left":[0,0,0,0,0,0,0,0,0,0,0,0,0,0,0],"id":10,"left_children":[1,3,5,7,9,11,13,-1,-1,-1,-1,-1,-1,-1,-1],"loss_changes":[6.515527E2,2.4373343E2,2.4536957E2,6.739334E1,7.655545E1,6.847693E1,9.099838E1,0E0,0E0,0E0,0E0,0E0,0E0,0E0,0E0],"parents":[2147483647,0,0,1,1,2,2,3,3,4,4,5,5,6,6],"right_children":[2,4,6,8,10,12,14,-1,-1,-1,-1,-1,-1,-1,-1],"split_conditions":[1.3118181E0,1.3911422E0,2.4297206E0,5.733197E-1,1.8448319E3,3.396393E0,2.2013208E3,-4.453954E-2,2.380849E-2,-8.280369E-2,-2.745088E-2,5.2335322E-2,2.482515E-2,-4.7317214E-2,2.347788E-2],"split_indices":[4,2,2,4,0,3,0,0,0,0,0,0,0,0,0],"split_type":[0,0,0,0,0,0,0,0,0,0,0,0,0,0,0],"sum_hessian":[2.6382693E3,6.415968E2,1.9966725E3,2.9863403E2,3.4296274E2,1.7573022E3,2.3937022E2,5.8072163E1,2.4056189E2,2.0304797E2,1.3991476E2,1.3739506E3,3.8335168E2,1.3159996E2,1.0777026E2],"tree_param":{"num_deleted":"0","num_feature":"7","num_nodes":"15","size_leaf_vector":"1"}},{"base_weights":[3.836305E-1,6.558232E-1,-4.824736E-1,8.712273E-3,8.4684664E-1,-1.0161666E0,2.55372E-1,-2.074322E-2,3.8149517E-2,5.2789982E-2,2.5106318E-2,-7.669009E-2,-1.4491674E-2,1.9852087E-2,-1.549428E-1],"categories":[],"categories_nodes":[],"categories_segments":[],"categories_sizes":[],"default_left":[0,0,0,0,0,0,0,0,0,0,0,0,0,0,0],"id":11,"left_children":[1,3,5,7,9,11,13,-1,-1,-1,-1,-1,-1,-1,-1],"loss_changes":[6.0896E2,2.4287189E2,2.435917E2,1.0939893E2,4.53385E1,8.763379E1,7.080405E1,0E0,0E0,0E0,0E0,0E0,0E0,0E0,0E0],"parents":[2147483647,0,0,1,1,2,2,3,3,4,4,5,5,6,6],"right_children":[2,4,6,8,10,12,14,-1,-1,-1,-1,-1,-1,-1,-1],"split_conditions":[1.9477146E0,1.4153502E0,2.624926E0,2.2994404E3,4.2586303E0,2.242893E3,1.307285E2,-2.074322E-2,3.8149517E-2,5.2789982E-2,2.5106318E-2,-7.669009E-2,-1.4491674E-2,1.9852087E-2,-1.549428E-1],"split_indices":[2,4,4,0,3,0,6,0,0,0,0,0,0,0,0],"split_type":[0,0,0,0,0,0,0,0,0,0,0,0,0,0,0],"sum_hessian":[2.5807646E3,1.9638298E3,6.169347E2,4.4782483E2,1.516005E3,3.5777463E2,2.591601E2,2.8657983E2,1.61245E2,1.2834531E3,2.3255191E2,2.5130437E2,1.0647026E2,2.5229553E2,6.8645635E0],"tree_param":{"num_deleted":"0","num_feature":"7","num_nodes":"15","size_leaf_vector":"1"}},{"base_weights":[3.70201E-1,-3.250549E-1,6.87633E-1,2.1558034E-1,-9.206892E-1,7.992578E-1,-2.7491426E-1,-3.8272355E-2,2.5590027E-2,-3.656568E-2,-1.0123041E-1,5.1370304E-2,2.719739E-2,2.1689308E-3,-8.6680785E-2],"categories":[],"categories_nodes":[],"categories_segments":[],"categories_sizes":[],"default_left":[0,0,0,0,0,0,0,0,0,0,0,0,0,0,0],"id":12,"left_children":[1,3,5,7,9,11,13,-1,-1,-1,-1,-1,-1,-1,-1],"loss_changes":[5.57896E2,2.5547745E2,1.866499E2,8.509988E1,8.908948E1,4.8368225E1,7.0078735E1,0E0,0E0,0E0,0E0,0E0,0E0,0E0,0E0],"parents":[2147483647,0,0,1,1,2,2,3,3,4,4,5,5,6,6],"right_children":[2,4,6,8,10,12,14,-1,-1,-1,-1,-1,-1,-1,-1],"split_conditions":[1.63207E0,1.4954668E0,2.5904515E0,6.154839E-1,2.8773734E-1,3.3519816E0,4.974814E0,-3.8272355E-2,2.5590027E-2,-3.656568E-2,-1.0123041E-1,5.1370304E-2,2.719739E-2,2.1689308E-3,-8.6680785E-2],"split_indices":[4,2,2,4,5,3,3,0,0,0,0,0,0,0,0],"split_type":[0,0,0,0,0,0,0,0,0,0,0,0,0,0,0],"sum_hessian":[2.525875E3,7.9174036E2,1.7341346E3,4.1536603E2,3.7637433E2,1.5540803E3,1.8005428E2,8.5640526E1,3.297255E2,2.8321466E2,9.315969E1,1.1967782E3,3.5730215E2,1.4448473E2,3.5569546E1],"tree_param":{"num_deleted":"0","num_feature":"7","num_nodes":"15","size_leaf_vector":"1"}},{"base_weights":[3.5711598E-1,6.2268025E-1,-4.3412304E-1,1.0470082E-2,8.1682813E-1,-8.703932E-1,2.680844E-1,1.16762575E-2,-7.0013955E-2,5.1312495E-2,2.310051E-2,-2.4196638E-2,-7.6995365E-2,2.063108E-2,-1.331934E-1],"categories":[],"categories_nodes":[],"categories_segments":[],"categories_sizes":[],"default_left":[0,0,0,0,0,0,0,0,0,0,0,0,0,0,0],"id":13,"left_children":[1,3,5,7,9,11,13,-1,-1,-1,-1,-1,-1,-1,-1],"loss_changes":[5.200672E2,2.2018231E2,1.9085147E2,1.0657223E2,4.5039734E1,8.076337E1,5.7653454E1,0E0,0E0,0E0,0E0,0E0,0E0,0E0,0E0],"parents":[2147483647,0,0,1,1,2,2,3,3,4,4,5,5,6,6],"right_children":[2,4,6,8,10,12,14,-1,-1,-1,-1,-1,-1,-1,-1],"split_conditions":[1.9477146E0,1.4153502E0,2.8614788E0,4.9043217E0,4.2586303E0,2.307289E0,1.307285E2,1.16762575E-2,-7.0013955E-2,5.1312495E-2,2.310051E-2,-2.4196638E-2,-7.6995365E-2,2.063108E-2,-1.331934E-1],"split_indices":[2,4,4,3,3,3,6,0,0,0,0,0,0,0,0],"split_type":[0,0,0,0,0,0,0,0,0,0,0,0,0,0,0],"sum_hessian":[2.4727532E3,1.851534E3,6.21219E2,4.460501E2,1.405484E3,3.8301712E2,2.3820187E2,3.8629453E2,5.9755566E1,1.1817573E3,2.2372668E2,1.9743445E2,1.8558267E2,2.3089188E2,7.3099875E0],"tree_param":{"num_deleted":"0","num_feature":"7","num_nodes":"15","size_leaf_vector":"1"}},{"base_weights":[3.4426144E-1,6.453033E-1,-3.143696E-1,-6.999043E-1,7.321304E-1,-8.306541E-1,1.9151947E-1,-5.212852E-2,5.4501954E-2,4.7603615E-2,1.2679589E-2,-3.22075E-2,-8.840514E-2,1.5221756E-2,-1.2244684E-1],"categories":[],"categories_nodes":[],"categories_segments":[],"categories_sizes":[],"default_left":[0,0,0,0,0,0,0,0,0,0,0,0,0,0,0],"id":14,"left_children":[1,3,5,7,9,11,13,-1,-1,-1,-1,-1,-1,-1,-1],"loss_changes":[4.8067618E2,1.9480194E2,1.9887485E2,3.5848297E1,7.808783E1,7.118863E1,6.680206E1,0E0,0E0,0E0,0E0,0E0,0E0,0E0,0E0],"parents":[2147483647,0,0,1,1,2,2,3,3,4,4,5,5,6,6],"right_children":[2,4,6,8,10,12,14,-1,-1,-1,-1,-1,-1,-1,-1],"split_conditions":[1.6848475E0,6.154839E-1,1.9302979E0,3.3247935E3,4.2586303E0,2.8773734E-1,1.0311011E2,-5.212852E-2,5.4501954E-2,4.7603615E-2,1.2679589E-2,-3.22075E-2,-8.840514E-2,1.5221756E-2,-1.2244684E-1],"split_indices":[2,4,4,0,3,5,6,0,0,0,0,0,0,0,0],"split_type":[0,0,0,0,0,0,0,0,0,0,0,0,0,0,0],"sum_hessian":[2.4222612E3,1.6624309E3,7.5983044E2,1.0036836E2,1.5620625E3,3.757338E2,3.8409665E2,8.9479034E1,1.0889326E1,1.3101997E3,2.5186281E2,2.7389084E2,1.01842964E2,3.7312842E2,1.0968222E1],"tree_param":{"num_deleted":"0","num_feature":"7","num_nodes":"15","size_leaf_vector":"1"}},{"base_weights":[3.317513E-1,-2.4910513E-1,6.611936E-1,1.1288883E-1,-9.8503196E-1,7.738894E-1,-1.889709E-1,-5.1971644E-2,2.0651318E-2,-7.8958146E-2,-7.792694E-3,4.6907827E-2,-2.245059E-3,5.7312343E-3,-7.442482E-2],"categories":[],"categories_nodes":[],"categories_segments":[],"categories_sizes":[],"default_left":[0,0,0,0,0,0,0,0,0,0,0,0,0,0,0],"id":15,"left_children":[1,3,5,7,9,11,13,-1,-1,-1,-1,-1,-1,-1,-1],"loss_changes":[4.5454678E2,2.2923561E2,1.4533966E2,1.458161E2,9.4203766E1,4.801416E1,5.7210537E1,0E0,0E0,0E0,0E0,0E0,0E0,0E0,0E0],"parents":[2147483647,0,0,1,1,2,2,3,3,4,4,5,5,6,6],"right_children":[2,4,6,8,10,12,14,-1,-1,-1,-1,-1,-1,-1,-1],"split_conditions":[1.798422E0,1.3779461E-1,2.5452988E0,5.733197E-1,2.2569844E3,6.866992E0,4.974814E0,-5.1971644E-2,2.0651318E-2,-7.8958146E-2,-7.792694E-3,4.6907827E-2,-2.245059E-3,5.7312343E-3,-7.442482E-2],"split_indices":[4,5,2,4,0,3,3,0,0,0,0,0,0,0,0],"split_type":[0,0,0,0,0,0,0,0,0,0,0,0,0,0,0],"sum_hessian":[2.3735046E3,8.590732E2,1.5144315E3,5.763968E2,2.8267636E2,1.3372576E3,1.7717397E2,1.1200547E2,4.6439133E2,1.9299345E2,8.968291E1,1.2684512E3,6.880636E1,1.4127484E2,3.5899124E1],"tree_param":{"num_deleted":"0","num_feature":"7","num_nodes":"15","size_leaf_vector":"1"}},{"base_weights":[3.19538E-1,6.1487824E-1,-2.9421914E-1,-5.417366E-1,7.0570415E-1,-6.529368E-1,2.9855677E-1,-3.063261E-3,-7.047619E-2,4.6146963E-2,1.2004617E-2,-5.4453388E-2,4.0490154E-4,2.1330949E-2,-1.0539726E-1],"categories":[],"categories_nodes":[],"categories_segments":[],"categories_sizes":[],"default_left":[0,0,0,0,0,0,0,0,0,0,0,0,0,0,0],"id":16,"left_children":[1,3,5,7,9,11,13,-1,-1,-1,-1,-1,-1,-1,-1],"loss_changes":[4.2219556E2,1.6553375E2,1.611676E2,3.853795E1,7.149359E1,9.240065E1,4.5557743E1,0E0,0E0,0E0,0E0,0E0,0E0,0E0,0E0],"parents":[2147483647,0,0,1,1,2,2,3,3,4,4,5,5,6,6],"right_children":[2,4,6,8,10,12,14,-1,-1,-1,-1,-1,-1,-1,-1],"split_conditions":[1.6848475E0,6.352744E-1,2.8614788E0,6.838288E-2,4.2586303E0,2.242893E3,1.307285E2,-3.063261E-3,-7.047619E-2,4.6146963E-2,1.2004617E-2,-5.4453388E-2,4.0490154E-4,2.1330949E-2,-1.0539726E-1],"split_indices":[2,4,4,5,3,0,6,0,0,0,0,0,0,0,0],"split_type":[0,0,0,0,0,0,0,0,0,0,0,0,0,0,0],"sum_hessian":[2.3271362E3,1.5711136E3,7.560225E2,1.14031E2,1.4570826E3,4.7093515E2,2.8508734E2,6.729344E1,4.6737553E1,1.2142416E3,2.4284102E2,3.2460452E2,1.4633063E2,2.7641476E2,8.672584E0],"tree_param":{"num_deleted":"0","num_feature":"7","num_nodes":"15","size_leaf_vector":"1"}},{"base_weights":[3.077453E-1,-2.3327793E-1,6.3043934E-1,-2.2990456E-2,-1.3458194E0,7.893551E-1,4.1446988E-2,-5.5196565E-2,1.0990121E-2,-3.682991E-2,-9.996144E-2,4.7718357E-2,3.6669703E-4,1.4098367E-2,-5.038002E-2],"categories":[],"categories_nodes":[],"categories_segments":[],"categories_sizes":[],"default_left":[0,0,0,0,0,0,0,0,0,0,0,0,0,0,0],"id":17,"left_children":[1,3,5,7,9,11,13,-1,-1,-1,-1,-1,-1,-1,-1],"loss_changes":[3.9864594E2,1.9965186E2,1.3381873E2,1.4514868E2,3.6805313E1,3.7703247E1,5.7553574E1,0E0,0E0,0E0,0E0,0E0,0E0,0E0,0E0],"parents":[2147483647,0,0,1,1,2,2,3,3,4,4,5,5,6,6],"right_children":[2,4,6,8,10,12,14,-1,-1,-1,-1,-1,-1,-1,-1],"split_conditions":[1.798422E0,2.8773734E-1,1.9961551E0,5.4509467E-1,1.5272461E0,6.866992E0,5.2679167E0,-5.5196565E-2,1.0990121E-2,-3.682991E-2,-9.996144E-2,4.7718357E-2,3.6669703E-4,1.4098367E-2,-5.038002E-2],"split_indices":[4,5,2,4,3,3,3,0,0,0,0,0,0,0,0],"split_type":[0,0,0,0,0,0,0,0,0,0,0,0,0,0,0],"sum_hessian":[2.2815496E3,8.525149E2,1.4290347E3,7.178507E2,1.3466418E2,1.125125E3,3.039097E2,1.3284831E2,5.850024E2,4.9546276E1,8.5117905E1,1.0667911E3,5.8333824E1,2.4926128E2,5.464842E1],"tree_param":{"num_deleted":"0","num_feature":"7","num_nodes":"15","size_leaf_vector":"1"}},{"base_weights":[2.9612693E-1,6.1784685E-1,-2.1334825E-1,-4.550035E-2,7.5021154E-1,-6.4107543E-1,2.2527677E-1,2.1414703E-2,-3.833376E-2,4.883093E-2,2.3484847E-2,-1.5406086E-2,-6.523234E-2,2.1384258E-2,-4.7878847E-2],"categories":[],"categories_nodes":[],"categories_segments":[],"categories_sizes":[],"default_left":[0,0,0,0,0,0,0,0,0,0,0,0,0,0,0],"id":18,"left_children":[1,3,5,7,9,11,13,-1,-1,-1,-1,-1,-1,-1,-1],"loss_changes":[3.672439E2,1.2059668E2,1.6292598E2,6.0107136E1,3.9161682E1,8.0962265E1,6.747241E1,0E0,0E0,0E0,0E0,0E0,0E0,0E0,0E0],"parents":[2147483647,0,0,1,1,2,2,3,3,4,4,5,5,6,6],"right_children":[2,4,6,8,10,12,14,-1,-1,-1,-1,-1,-1,-1,-1],"split_conditions":[1.4954668E0,1.0484529E0,1.9302979E0,6.838288E-2,3.396393E0,2.5264525E0,3.3997173E0,2.1414703E-2,-3.833376E-2,4.883093E-2,2.3484847E-2,-1.5406086E-2,-6.523234E-2,2.1384258E-2,-4.7878847E-2],"split_indices":[2,4,4,5,3,3,2,0,0,0,0,0,0,0,0],"split_type":[0,0,0,0,0,0,0,0,0,0,0,0,0,0,0],"sum_hessian":[2.238741E3,1.3720902E3,8.6665076E2,2.2835294E2,1.1437372E3,4.385425E2,4.2810828E2,1.3677524E2,9.15777E1,8.804159E2,2.6332138E2,2.5145425E2,1.8708826E2,3.7635178E2,5.1756496E1],"tree_param":{"num_deleted":"0","num_feature":"7","num_nodes":"15","size_leaf_vector":"1"}},{"base_weights":[2.8492674E-1,-1.874194E-1,6.14737E-1,4.3293694E-1,-4.8885512E-1,7.304884E-1,-1.6219178E-1,3.6656674E-2,-7.7287946E-3,-4.0434743E-3,-5.3587522E-2,4.8886746E-2,2.4068076E-2,-2.9476317E-2,3.60914E-2],"categories":[],"categories_nodes":[],"categories_segments":[],"categories_sizes":[],"default_left":[0,0,0,0,0,0,0,0,0,0,0,0,0,0,0],"id":19,"left_children":[1,3,5,7,9,11,13,-1,-1,-1,-1,-1,-1,-1,-1],"loss_changes":[3.4258194E2,1.6937372E2,1.1655286E2,3.479285E1,1.1351468E2,4.237671E1,4.730464E1,0E0,0E0,0E0,0E0,0E0,0E0,0E0,0E0],"parents":[2147483647,0,0,1,1,2,2,3,3,4,4,5,5,6,6],"right_children":[2,4,6,8,10,12,14,-1,-1,-1,-1,-1,-1,-1,-1],"split_conditions":[1.9507703E0,9.471812E-1,2.5452988E0,2.8737574E0,2.038407E0,3.0476909E0,2.893416E3,3.6656674E-2,-7.7287946E-3,-4.0434743E-3,-5.3587522E-2,4.8886746E-2,2.4068076E-2,-2.9476317E-2,3.60914E-2],"split_indices":[4,2,2,3,3,3,0,0,0,0,0,0,0,0,0],"split_type":[0,0,0,0,0,0,0,0,0,0,0,0,0,0,0],"sum_hessian":[2.1973352E3,9.036219E2,1.2937134E3,2.9535123E2,6.082707E2,1.1260131E3,1.6770027E2,2.165409E2,7.881032E1,3.143328E2,2.939379E2,8.073269E2,3.1868622E2,1.1634116E2,5.1359108E1],"tree_param":{"num_deleted":"0","num_feature":"7","num_nodes":"15","size_leaf_vector":"1"}},{"base_weights":[2.740121E-1,5.5399656E-1,-2.5232732E-1,4.0870808E-2,7.4286205E-1,-4.8823813E-1,5.041459E-1,-2.1665728E-2,3.0828526E-2,4.7567595E-2,1.9330228E-2,-8.705536E-3,-5.182808E-2,3.905788E-2,-9.7427685E-3],"categories":[],"categories_nodes":[],"categories_segments":[],"categories_sizes":[],"default_left":[0,0,0,0,0,0,0,0,0,0,0,0,0,0,0],"id":20,"left_children":[1,3,5,7,9,11,13,-1,-1,-1,-1,-1,-1,-1,-1],"loss_changes":[3.1835577E2,1.3660129E2,1.3417859E2,7.930827E1,3.594513E1,7.9912766E1,2.1453762E1,0E0,0E0,0E0,0E0,0E0,0E0,0E0,0E0],"parents":[2147483647,0,0,1,1,2,2,3,3,4,4,5,5,6,6],"right_children":[2,4,6,8,10,12,14,-1,-1,-1,-1,-1,-1,-1,-1],"split_conditions":[1.6848475E0,1.4153502E0,2.893416E3,1.977324E3,4.2586303E0,2.6726615E0,4.0619922E-1,-2.1665728E-2,3.0828526E-2,4.7567595E-2,1.9330228E-2,-8.705536E-3,-5.182808E-2,3.905788E-2,-9.7427685E-3],"split_indices":[2,4,0,0,3,3,5,0,0,0,0,0,0,0,0],"split_type":[0,0,0,0,0,0,0,0,0,0,0,0,0,0,0],"sum_hessian":[2.1583455E3,1.4088564E3,7.494891E2,3.793695E2,1.0294869E3,5.7158984E2,1.7789922E2,2.0598587E2,1.7338364E2,8.4750476E2,1.819822E2,3.1662003E2,2.5496983E2,1.408991E2,3.7000114E1],"tree_param":{"num_deleted":"0","num_feature":"7","num_nodes":"15","size_leaf_vector":"1"}},{"base_weights":[2.632662E-1,-1.7662337E-1,5.8563244E-1,2.1431671E-1,-6.2859476E-1,7.2323364E-1,-3.2502975E-2,-3.0916566E-2,2.4165204E-2,-5.4062746E-2,2.6563727E-3,4.395688E-2,-2.8741707E-3,-2.4406608E-2,2.5964962E-2],"categories":[],"categories_nodes":[],"categories_segments":[],"categories_sizes":[],"default_left":[0,0,0,0,0,0,0,0,0,0,0,0,0,0,0],"id":21,"left_children":[1,3,5,7,9,11,13,-1,-1,-1,-1,-1,-1,-1,-1],"loss_changes":[3.0116467E2,1.5891734E2,1.0425342E2,7.552374E1,8.846965E1,3.359973E1,4.293938E1,0E0,0E0,0E0,0E0,0E0,0E0,0E0,0E0],"parents":[2147483647,0,0,1,1,2,2,3,3,4,4,5,5,6,6],"right_children":[2,4,6,8,10,12,14,-1,-1,-1,-1,-1,-1,-1,-1],"split_conditions":[1.9507703E0,9.468882E-2,2.2744813E0,5.958679E-1,2.2994404E3,7.047165E0,2.2150215E3,-3.0916566E-2,2.4165204E-2,-5.4062746E-2,2.6563727E-3,4.395688E-2,-2.8741707E-3,-2.4406608E-2,2.5964962E-2],"split_indices":[4,5,2,4,0,3,0,0,0,0,0,0,0,0,0],"split_type":[0,0,0,0,0,0,0,0,0,0,0,0,0,0,0],"sum_hessian":[2.122057E3,8.976319E2,1.2244249E3,4.8159457E2,4.1603735E2,1.0013479E3,2.2307695E2,1.034818E2,3.781128E2,2.8362012E2,1.3241724E2,9.4826886E2,5.3079052E1,1.233116E2,9.976535E1],"tree_param":{"num_deleted":"0","num_feature":"7","num_nodes":"15","size_leaf_vector":"1"}},{"base_weights":[2.5293592E-1,6.0074097E-1,-1.39434E-1,2.1347368E-1,7.7730244E-1,-4.4326302E-1,3.5381722E-1,-6.0378434E-3,3.8012747E-2,4.6661153E-2,2.5940514E-3,-4.051089E-2,8.967776E-3,-3.3289086E-2,2.8999908E-2],"categories":[],"categories_nodes":[],"categories_segments":[],"categories_sizes":[],"default_left":[0,0,0,0,0,0,0,0,0,0,0,0,0,0,0],"id":22,"left_children":[1,3,5,7,9,11,13,-1,-1,-1,-1,-1,-1,-1,-1],"loss_changes":[2.8490356E2,7.549655E1,1.4725145E2,4.990636E1,2.0197418E1,9.603292E1,5.3466854E1,0E0,0E0,0E0,0E0,0E0,0E0,0E0,0E0],"parents":[2147483647,0,0,1,1,2,2,3,3,4,4,5,5,6,6],"right_children":[2,4,6,8,10,12,14,-1,-1,-1,-1,-1,-1,-1,-1],"split_conditions":[1.301673E0,1.7153388E0,2.242893E3,2.1620073E3,7.047165E0,2.8614788E0,7.816024E-1,-6.0378434E-3,3.8012747E-2,4.6661153E-2,2.5940514E-3,-4.051089E-2,8.967776E-3,-3.3289086E-2,2.8999908E-2],"split_indices":[2,4,0,0,3,4,4,0,0,0,0,0,0,0,0],"split_type":[0,0,0,0,0,0,0,0,0,0,0,0,0,0,0],"sum_hessian":[2.0860776E3,1.1055573E3,9.8052045E2,3.4689407E2,7.5866315E2,6.068309E2,3.7368958E2,2.0339224E2,1.4350183E2,7.2263605E2,3.6027096E1,4.216136E2,1.852173E2,5.186001E1,3.218296E2],"tree_param":{"num_deleted":"0","num_feature":"7","num_nodes":"15","size_leaf_vector":"1"}},{"base_weights":[2.4300352E-1,5.8409995E-1,-1.316397E-1,2.0348482E-1,7.628107E-1,-4.154006E-1,3.3943313E-1,2.6081374E-2,-1.896929E-2,4.5877084E-2,2.45422E-3,-3.5826147E-2,1.4927263E-2,-3.1080397E-2,2.794545E-2],"categories":[],"categories_nodes":[],"categories_segments":[],"categories_sizes":[],"default_left":[0,0,0,0,0,0,0,0,0,0,0,0,0,0,0],"id":23,"left_children":[1,3,5,7,9,11,13,-1,-1,-1,-1,-1,-1,-1,-1],"loss_changes":[2.6229834E2,7.291617E1,1.3096825E2,4.6422997E1,1.9537842E1,8.662555E1,4.829446E1,0E0,0E0,0E0,0E0,0E0,0E0,0E0,0E0],"parents":[2147483647,0,0,1,1,2,2,3,3,4,4,5,5,6,6],"right_children":[2,4,6,8,10,12,14,-1,-1,-1,-1,-1,-1,-1,-1],"split_conditions":[1.301673E0,1.7153388E0,2.242893E3,2.615648E0,7.047165E0,3.0316875E3,7.816024E-1,2.6081374E-2,-1.896929E-2,4.5877084E-2,2.45422E-3,-3.5826147E-2,1.4927263E-2,-3.1080397E-2,2.794545E-2],"split_indices":[2,4,0,3,3,1,4,0,0,0,0,0,0,0,0],"split_type":[0,0,0,0,0,0,0,0,0,0,0,0,0,0,0],"sum_hessian":[2.0509805E3,1.0732625E3,9.77718E2,3.4360242E2,7.2966E2,6.102431E2,3.674749E2,2.3377937E2,1.0982306E2,6.9370496E2,3.595504E1,4.659581E2,1.4428502E2,5.2414074E1,3.1506085E2],"tree_param":{"num_deleted":"0","num_feature":"7","num_nodes":"15","size_leaf_vector":"1"}},{"base_weights":[2.3314963E-1,-3.79191E-1,4.2943E-1,1.0386026E-1,-7.4721116E-1,6.4507717E-1,1.5590978E-3,1.7283792E-2,-6.2487572E-2,-5.202683E-2,1.606452E-2,4.467239E-2,1.7162167E-2,1.934768E-2,-2.4491807E-2],"categories":[],"categories_nodes":[],"categories_segments":[],"categories_sizes":[],"default_left":[0,0,0,0,0,0,0,0,0,0,0,0,0,0,0],"id":24,"left_children":[1,3,5,7,9,11,13,-1,-1,-1,-1,-1,-1,-1,-1],"loss_changes":[2.429654E2,8.73446E1,1.4119455E2,5.058212E1,4.6085007E1,4.688791E1,7.410801E1,0E0,0E0,0E0,0E0,0E0,0E0,0E0,0E0],"parents":[2147483647,0,0,1,1,2,2,3,3,4,4,5,5,6,6],"right_children":[2,4,6,8,10,12,14,-1,-1,-1,-1,-1,-1,-1,-1],"split_conditions":[1.0484529E0,6.838288E-2,1.6848475E0,5.1673055E0,3.4404165E3,3.0816858E0,2.6443815E0,1.7283792E-2,-6.2487572E-2,-5.202683E-2,1.606452E-2,4.467239E-2,1.7162167E-2,1.934768E-2,-2.4491807E-2],"split_indices":[4,5,2,3,1,3,3,0,0,0,0,0,0,0,0],"split_type":[0,0,0,0,0,0,0,0,0,0,0,0,0,0,0],"sum_hessian":[2.0191486E3,4.8989117E2,1.5292573E3,2.1214905E2,2.7774216E2,1.01645557E3,5.128018E2,1.8266426E2,2.9484777E1,2.404076E2,3.7334553E1,7.3178186E2,2.846737E2,2.876522E2,2.2514961E2],"tree_param":{"num_deleted":"0","num_feature":"7","num_nodes":"15","size_leaf_vector":"1"}},{"base_weights":[2.2374028E-1,-1.5542488E-1,5.2664614E-1,1.9293135E-2,-1.0201981E0,6.0578835E-1,-5.138135E-1,1.4379758E-2,-3.3691254E-2,-6.494285E-2,2.7545176E-2,4.3217033E-2,1.2941281E-2,-4.396524E-2,3.321731E-2],"categories":[],"categories_nodes":[],"categories_segments":[],"categories_sizes":[],"default_left":[0,0,0,0,0,0,0,0,0,0,0,0,0,0,0],"id":25,"left_children":[1,3,5,7,9,11,13,-1,-1,-1,-1,-1,-1,-1,-1],"loss_changes":[2.2841016E2,1.3353198E2,9.133313E1,1.03537E2,2.557251E1,5.758264E1,2.2190218E1,0E0,0E0,0E0,0E0,0E0,0E0,0E0,0E0],"parents":[2147483647,0,0,1,1,2,2,3,3,4,4,5,5,6,6],"right_children":[2,4,6,8,10,12,14,-1,-1,-1,-1,-1,-1,-1,-1],"split_conditions":[1.9507703E0,2.8773734E-1,3.1612062E0,3.4370227E0,4.6137656E3,3.3519816E0,3.6058674E3,1.4379758E-2,-3.3691254E-2,-6.494285E-2,2.7545176E-2,4.3217033E-2,1.2941281E-2,-4.396524E-2,3.321731E-2],"split_indices":[4,5,2,3,1,3,0,0,0,0,0,0,0,0,0],"split_type":[0,0,0,0,0,0,0,0,0,0,0,0,0,0,0],"sum_hessian":[1.9870333E3,8.826522E2,1.1043811E3,7.351091E2,1.475431E2,1.026703E3,7.76781E1,5.3255524E2,2.0255388E2,1.37499E2,1.0044099E1,7.384957E2,2.8820734E2,6.3327076E1,1.4351024E1],"tree_param":{"num_deleted":"0","num_feature":"7","num_nodes":"15","size_leaf_vector":"1"}},{"base_weights":[2.1444374E-1,5.428445E-1,-1.2577412E-1,-2.844297E-1,6.2050194E-1,-3.132156E-1,4.938761E-1,-4.9129426E-2,2.775891E-3,4.219846E-2,1.4228354E-2,-1.0665465E-3,-3.9411124E-2,3.2822885E-2,-4.888382E-2],"categories":[],"categories_nodes":[],"categories_segments":[],"categories_sizes":[],"default_left":[0,0,0,0,0,0,0,0,0,0,0,0,0,0,0],"id":26,"left_children":[1,3,5,7,9,11,13,-1,-1,-1,-1,-1,-1,-1,-1],"loss_changes":[2.1892947E2,6.4223816E1,1.119985E2,1.6468403E1,3.8983673E1,8.15257E1,2.4163063E1,0E0,0E0,0E0,0E0,0E0,0E0,0E0,0E0],"parents":[2147483647,0,0,1,1,2,2,3,3,4,4,5,5,6,6],"right_children":[2,4,6,8,10,12,14,-1,-1,-1,-1,-1,-1,-1,-1],"split_conditions":[1.301673E0,6.352744E-1,2.893416E3,1.5051707E3,3.5747845E0,2.615648E0,4.6726517E1,-4.9129426E-2,2.775891E-3,4.219846E-2,1.4228354E-2,-1.0665465E-3,-3.9411124E-2,3.2822885E-2,-4.888382E-2],"split_indices":[2,4,0,0,3,3,6,0,0,0,0,0,0,0,0],"split_type":[0,0,0,0,0,0,0,0,0,0,0,0,0,0,0],"sum_hessian":[1.9578789E3,9.959382E2,9.619408E2,8.523877E1,9.106994E2,7.389163E2,2.2302446E2,3.0765179E1,5.4473587E1,6.945532E2,2.1614615E2,4.139314E2,3.2498492E2,2.1128079E2,1.1743672E1],"tree_param":{"num_deleted":"0","num_feature":"7","num_nodes":"15","size_leaf_vector":"1"}},{"base_weights":[2.0536807E-1,-1.5228997E-1,5.0108546E-1,2.9161814E-1,-4.5611987E-1,5.9643555E-1,-3.1263703E-1,2.5238242E-2,-3.4851078E-2,-3.8833473E-2,1.5018915E-2,3.7735566E-2,-2.073339E-2,-3.1092728E-3,-6.622126E-2],"categories":[],"categories_nodes":[],"categories_segments":[],"categories_sizes":[],"default_left":[0,0,0,0,0,0,0,0,0,0,0,0,0,0,0],"id":27,"left_children":[1,3,5,7,9,11,13,-1,-1,-1,-1,-1,-1,-1,-1],"loss_changes":[2.043702E2,1.18145744E2,8.224213E1,4.783004E1,8.269286E1,5.6126556E1,2.422034E1,0E0,0E0,0E0,0E0,0E0,0E0,0E0,0E0],"parents":[2147483647,0,0,1,1,2,2,3,3,4,4,5,5,6,6],"right_children":[2,4,6,8,10,12,14,-1,-1,-1,-1,-1,-1,-1,-1],"split_conditions":[1.9507703E0,6.579676E-2,2.8833451E0,5.1673055E0,2.9641567E3,4.242616E1,5.3788996E-1,2.5238242E-2,-3.4851078E-2,-3.8833473E-2,1.5018915E-2,3.7735566E-2,-2.073339E-2,-3.1092728E-3,-6.622126E-2],"split_indices":[4,5,2,3,1,6,5,0,0,0,0,0,0,0,0],"split_type":[0,0,0,0,0,0,0,0,0,0,0,0,0,0,0],"sum_hessian":[1.93057E3,8.739945E2,1.0565754E3,3.551483E2,5.1884625E2,9.459933E2,1.1058217E2,3.0525827E2,4.9890026E1,3.9675073E2,1.22095505E2,8.891294E2,5.6863873E1,8.543139E1,2.515078E1],"tree_param":{"num_deleted":"0","num_feature":"7","num_nodes":"15","size_leaf_vector":"1"}},{"base_weights":[1.9659741E-1,5.156154E-1,-1.2121989E-1,1.6892591E-1,6.9931173E-1,-1.0523559E0,-1.2954655E-3,-7.8871455E-3,3.5643615E-2,4.2519826E-2,-1.766565E-3,-6.6637024E-2,1.7538963E-2,9.446074E-3,-3.9951883E-2],"categories":[],"categories_nodes":[],"categories_segments":[],"categories_sizes":[],"default_left":[0,0,0,0,0,0,0,0,0,0,0,0,0,0,0],"id":28,"left_children":[1,3,5,7,9,11,13,-1,-1,-1,-1,-1,-1,-1,-1],"loss_changes":[1.9325513E2,6.04545E1,1.0667661E2,4.5963577E1,1.914914E1,1.659214E1,9.793732E1,0E0,0E0,0E0,0E0,0E0,0E0,0E0,0E0],"parents":[2147483647,0,0,1,1,2,2,3,3,4,4,5,5,6,6],"right_children":[2,4,6,8,10,12,14,-1,-1,-1,-1,-1,-1,-1,-1],"split_conditions":[1.301673E0,1.7153388E0,5.4509467E-1,2.1620073E3,7.047165E0,3.4153062E3,5.1673055E0,-7.8871455E-3,3.5643615E-2,4.2519826E-2,-1.766565E-3,-6.6637024E-2,1.7538963E-2,9.446074E-3,-3.9951883E-2],"split_indices":[2,4,4,0,3,1,3,0,0,0,0,0,0,0,0],"split_type":[0,0,0,0,0,0,0,0,0,0,0,0,0,0,0],"sum_hessian":[1.9044509E3,9.501195E2,9.5433136E2,3.2973376E2,6.2038574E2,1.08000656E2,8.4633075E2,1.9702858E2,1.3270518E2,5.865048E2,3.3880928E1,1.000649E2,7.93575E0,6.8383527E2,1.6249547E2],"tree_param":{"num_deleted":"0","num_feature":"7","num_nodes":"15","size_leaf_vector":"1"}},{"base_weights":[1.8825279E-1,5.907504E-1,-5.046783E-2,7.329324E-1,2.3245886E-1,-3.107936E-1,3.7577367E-1,-7.24699E-2,4.3794665E-2,-1.8648252E-4,3.9268352E-2,-3.156252E-2,8.958285E-3,2.930594E-2,-1.918763E-2],"categories":[],"categories_nodes":[],"categories_segments":[],"categories_sizes":[],"default_left":[0,0,0,0,0,0,0,0,0,0,0,0,0,0,0],"id":29,"left_children":[1,3,5,7,9,11,13,-1,-1,-1,-1,-1,-1,-1,-1],"loss_changes":[1.8055756E2,3.546692E1,1.3108325E2,3.1703613E1,2.1347025E1,8.213953E1,4.3218246E1,0E0,0E0,0E0,0E0,0E0,0E0,0E0,0E0],"parents":[2147483647,0,0,1,1,2,2,3,3,4,4,5,5,6,6],"right_children":[2,4,6,8,10,12,14,-1,-1,-1,-1,-1,-1,-1,-1],"split_conditions":[9.5495546E-1,3.0476909E0,2.242893E3,3.8485122E-1,4.2854023E0,2.624926E0,5.1673055E0,-7.24699E-2,4.3794665E-2,-1.8648252E-4,3.9268352E-2,-3.156252E-2,8.958285E-3,2.930594E-2,-1.918763E-2],"split_indices":[2,3,0,4,4,4,3,0,0,0,0,0,0,0,0],"split_type":[0,0,0,0,0,0,0,0,0,0,0,0,0,0,0],"sum_hessian":[1.8778439E3,6.9855786E2,1.179286E3,4.9935254E2,1.9920537E2,7.323042E2,4.4698184E2,6.969898E0,4.9238263E2,1.3161185E2,6.759352E1,4.8387363E2,2.4843057E2,3.75718E2,7.126384E1],"tree_param":{"num_deleted":"0","num_feature":"7","num_nodes":"15","size_leaf_vector":"1"}},{"base_weights":[1.8021566E-1,2.9900387E-1,-5.988068E-1,-6.868288E-1,3.8350537E-1,-7.327722E-1,3.5205463E-1,-4.166027E-3,-5.390666E-2,3.200623E-2,-2.4273545E-3,-5.121092E-2,-1.0822327E-2,3.7043005E-2,-3.402878E-2],"categories":[],"categories_nodes":[],"categories_segments":[],"categories_sizes":[],"default_left":[0,0,0,0,0,0,0,0,0,0,0,0,0,0,0],"id":30,"left_children":[1,3,5,7,9,11,13,-1,-1,-1,-1,-1,-1,-1,-1],"loss_changes":[1.7172318E2,1.3431294E2,3.1543266E1,1.9744114E1,1.1028378E2,1.8628548E1,8.998856E0,0E0,0E0,0E0,0E0,0E0,0E0,0E0,0E0],"parents":[2147483647,0,0,1,1,2,2,3,3,4,4,5,5,6,6],"right_children":[2,4,6,8,10,12,14,-1,-1,-1,-1,-1,-1,-1,-1],"split_conditions":[2.8833451E0,5.4509467E-1,3.6967004E3,3.826524E-2,3.396393E0,3.7668428E0,5.836056E-1,-4.166027E-3,-5.390666E-2,3.200623E-2,-2.4273545E-3,-5.121092E-2,-1.0822327E-2,3.7043005E-2,-3.402878E-2],"split_indices":[2,4,0,5,3,4,5,0,0,0,0,0,0,0,0],"split_type":[0,0,0,0,0,0,0,0,0,0,0,0,0,0,0],"sum_hessian":[1.8527557E3,1.6081547E3,2.4460115E2,1.2639899E2,1.4817556E3,2.1459636E2,3.0004784E1,3.7273914E1,8.912507E1,1.050611E3,4.3114468E2,1.6527255E2,4.932382E1,2.3130953E1,6.873831E0],"tree_param":{"num_deleted":"0","num_feature":"7","num_nodes":"15","size_leaf_vector":"1"}},{"base_weights":[1.7237508E-1,-8.037606E-2,5.3075325E-1,7.946646E-2,-8.560798E-1,6.7771864E-1,9.606847E-2,-1.6210014E-2,2.0964205E-2,-1.7389398E-2,-6.745272E-2,4.4422653E-2,1.7232975E-2,1.0387895E-2,-9.06637E-2],"categories":[],"categories_nodes":[],"categories_segments":[],"categories_sizes":[],"default_left":[0,0,0,0,0,0,0,0,0,0,0,0,0,0,0],"id":31,"left_children":[1,3,5,7,9,11,13,-1,-1,-1,-1,-1,-1,-1,-1],"loss_changes":[1.6573145E2,1.3317674E2,4.8272293E1,9.242578E1,3.2124557E1,2.0436676E1,2.7730932E1,0E0,0E0,0E0,0E0,0E0,0E0,0E0,0E0],"parents":[2147483647,0,0,1,1,2,2,3,3,4,4,5,5,6,6],"right_children":[2,4,6,8,10,12,14,-1,-1,-1,-1,-1,-1,-1,-1],"split_conditions":[2.8614788E0,2.8773734E-1,2.0686548E0,1.6842964E3,1.5272461E0,1.855636E1,1.307285E2,-1.6210014E-2,2.0964205E-2,-1.7389398E-2,-6.745272E-2,4.4422653E-2,1.7232975E-2,1.0387895E-2,-9.06637E-2],"split_indices":[4,5,2,0,3,6,6,0,0,0,0,0,0,0,0],"split_type":[0,0,0,0,0,0,0,0,0,0,0,0,0,0,0],"sum_hessian":[1.8281882E3,1.0725402E3,7.55648E2,8.900358E2,1.8250438E2,5.6430084E2,1.913472E2,3.9283054E2,4.9720526E2,6.7646835E1,1.1485754E2,4.480973E2,1.16203514E2,1.829578E2,8.389403E0],"tree_param":{"num_deleted":"0","num_feature":"7","num_nodes":"15","size_leaf_vector":"1"}},{"base_weights":[1.6473608E-1,6.0190123E-1,-3.597358E-2,1.264682E-1,6.835863E-1,-2.7652165E-1,3.627295E-1,2.0460557E-2,-2.8394956E-2,4.564294E-2,2.3240674E-2,-2.6875352E-2,1.5937861E-2,3.149782E-2,-7.0363823E-3],"categories":[],"categories_nodes":[],"categories_segments":[],"categories_sizes":[],"default_left":[0,0,0,0,0,0,0,0,0,0,0,0,0,0,0],"id":32,"left_children":[1,3,5,7,9,11,13,-1,-1,-1,-1,-1,-1,-1,-1],"loss_changes":[1.5858334E2,2.1998306E1,1.1897153E2,1.2290298E1,1.48437805E1,8.254279E1,4.2339016E1,0E0,0E0,0E0,0E0,0E0,0E0,0E0,0E0],"parents":[2147483647,0,0,1,1,2,2,3,3,4,4,5,5,6,6],"right_children":[2,4,6,8,10,12,14,-1,-1,-1,-1,-1,-1,-1,-1],"split_conditions":[8.4046906E-1,8.662069E-1,2.242893E3,7.539855E-2,3.0816858E0,2.920846E3,3.661798E0,2.0460557E-2,-2.8394956E-2,4.564294E-2,2.3240674E-2,-2.6875352E-2,1.5937861E-2,3.149782E-2,-7.0363823E-3],"split_indices":[2,4,0,5,3,1,3,0,0,0,0,0,0,0,0],"split_type":[0,0,0,0,0,0,0,0,0,0,0,0,0,0,0],"sum_hessian":[1.8061095E3,5.676701E2,1.2384395E3,8.360584E1,4.8406424E2,7.726099E2,4.658295E2,6.1313675E1,2.2292171E1,3.4353204E2,1.405322E2,5.738911E2,1.9871881E2,3.364217E2,1.2940779E2],"tree_param":{"num_deleted":"0","num_feature":"7","num_nodes":"15","size_leaf_vector":"1"}},{"base_weights":[1.5742122E-1,-8.061246E-2,5.0619364E-1,7.014456E-2,-7.9793274E-1,6.5359294E-1,8.995011E-2,-3.8026296E-2,1.14812255E-2,-5.2494988E-2,3.4468368E-2,4.323249E-2,1.5722228E-2,9.799279E-3,-8.3219916E-2],"categories":[],"categories_nodes":[],"categories_segments":[],"categories_sizes":[],"default_left":[0,0,0,0,0,0,0,0,0,0,0,0,0,0,0],"id":33,"left_children":[1,3,5,7,9,11,13,-1,-1,-1,-1,-1,-1,-1,-1],"loss_changes":[1.4838673E2,1.14999855E2,4.4421127E1,8.398752E1,3.0903587E1,2.0162827E1,2.403973E1,0E0,0E0,0E0,0E0,0E0,0E0,0E0,0E0],"parents":[2147483647,0,0,1,1,2,2,3,3,4,4,5,5,6,6],"right_children":[2,4,6,8,10,12,14,-1,-1,-1,-1,-1,-1,-1,-1],"split_conditions":[2.8614788E0,2.8773734E-1,2.0686548E0,5.4509467E-1,4.6137656E3,1.855636E1,1.307285E2,-3.8026296E-2,1.14812255E-2,-5.2494988E-2,3.4468368E-2,4.323249E-2,1.5722228E-2,9.799279E-3,-8.3219916E-2],"split_indices":[4,5,2,4,1,6,6,0,0,0,0,0,0,0,0],"split_type":[0,0,0,0,0,0,0,0,0,0,0,0,0,0,0],"sum_hessian":[1.7858788E3,1.0619069E3,7.239719E2,8.7823346E2,1.8367345E2,5.342236E2,1.8974835E2,1.3169647E2,7.46537E2,1.6976271E2,1.3910731E1,4.2174503E2,1.1247853E2,1.811259E2,8.622462E0],"tree_param":{"num_deleted":"0","num_feature":"7","num_nodes":"15","size_leaf_vector":"1"}},{"base_weights":[1.5045446E-1,5.886012E-1,-3.3075098E-2,-9.203675E-1,6.138713E-1,-4.157105E-1,2.0362337E-1,4.1763186E-2,-7.452348E-2,4.2835623E-2,1.7202577E-2,-4.0244956E-2,2.4552005E-3,-9.521148E-3,2.9474238E-2],"categories":[],"categories_nodes":[],"categories_segments":[],"categories_sizes":[],"default_left":[0,0,0,0,0,0,0,0,0,0,0,0,0,0,0],"id":34,"left_children":[1,3,5,7,9,11,13,-1,-1,-1,-1,-1,-1,-1,-1],"loss_changes":[1.4196346E2,2.0438019E1,1.12845314E2,6.562836E0,2.1216873E1,6.2491516E1,8.8407745E1,0E0,0E0,0E0,0E0,0E0,0E0,0E0,0E0],"parents":[2147483647,0,0,1,1,2,2,3,3,4,4,5,5,6,6],"right_children":[2,4,6,8,10,12,14,-1,-1,-1,-1,-1,-1,-1,-1],"split_conditions":[8.150413E-1,3.8485122E-1,1.5796997E3,2.6533064E-1,3.0110233E0,2.609435E3,1.6530411E3,4.1763186E-2,-7.452348E-2,4.2835623E-2,1.7202577E-2,-4.0244956E-2,2.4552005E-3,-9.521148E-3,2.9474238E-2],"split_indices":[2,4,0,2,3,1,1,0,0,0,0,0,0,0,0],"split_type":[0,0,0,0,0,0,0,0,0,0,0,0,0,0,0],"sum_hessian":[1.7641897E3,5.2016766E2,1.2440221E3,7.9841466E0,5.1218353E2,4.7515424E2,7.6886786E2,1.3208241E0,6.6633224E0,3.586976E2,1.534859E2,2.922678E2,1.8288643E2,3.5112137E2,4.177465E2],"tree_param":{"num_deleted":"0","num_feature":"7","num_nodes":"15","size_leaf_vector":"1"}},{"base_weights":[1.435778E-1,-8.1163034E-2,4.8252207E-1,4.2698853E-2,-8.5135674E-1,5.6938475E-1,-2.3141958E-1,-9.347356E-3,2.8003516E-2,-6.0112033E-2,5.969944E-3,3.477638E-2,-5.705618E-2,-4.976291E-2,1.41108185E-2],"categories":[],"categories_nodes":[],"categories_segments":[],"categories_sizes":[],"default_left":[0,0,0,0,0,0,0,0,0,0,0,0,0,0,0],"id":35,"left_children":[1,3,5,7,9,11,13,-1,-1,-1,-1,-1,-1,-1,-1],"loss_changes":[1.3314973E2,1.0035584E2,4.334665E1,8.320814E1,2.7524773E1,3.6630493E1,2.3396673E1,0E0,0E0,0E0,0E0,0E0,0E0,0E0,0E0],"parents":[2147483647,0,0,1,1,2,2,3,3,4,4,5,5,6,6],"right_children":[2,4,6,8,10,12,14,-1,-1,-1,-1,-1,-1,-1,-1],"split_conditions":[2.8614788E0,3.4515575E-1,5.3788996E-1,2.3271624E3,3.334787E3,1.0311011E2,5.988825E0,-9.347356E-3,2.8003516E-2,-6.0112033E-2,5.969944E-3,3.477638E-2,-5.705618E-2,-4.976291E-2,1.41108185E-2],"split_indices":[4,5,5,0,1,6,4,0,0,0,0,0,0,0,0],"split_type":[0,0,0,0,0,0,0,0,0,0,0,0,0,0,0],"sum_hessian":[1.74644E3,1.0505929E3,6.95847E2,9.0585815E2,1.4473476E2,6.205495E2,7.529753E1,6.202092E2,2.85649E2,1.1992504E2,2.4809721E1,6.067894E2,1.3760021E1,3.192846E1,4.336907E1],"tree_param":{"num_deleted":"0","num_feature":"7","num_nodes":"15","size_leaf_vector":"1"}},{"base_weights":[1.3702239E-1,3.587801E-1,-1.9933543E-1,-7.955595E-1,4.3446168E-1,-3.6740068E-1,3.765609E-1,-3.2030933E-2,-9.6469864E-2,2.8390488E-2,-3.183287E-2,-4.3728404E-2,-2.5559245E-3,3.143795E-2,-1.7272256E-2],"categories":[],"categories_nodes":[],"categories_segments":[],"categories_sizes":[],"default_left":[0,0,0,0,0,0,0,0,0,0,0,0,0,0,0],"id":36,"left_children":[1,3,5,7,9,11,13,-1,-1,-1,-1,-1,-1,-1,-1],"loss_changes":[1.2903323E2,9.140628E1,6.6690735E1,1.2611977E1,5.899118E1,6.792979E1,1.82949E1,0E0,0E0,0E0,0E0,0E0,0E0,0E0,0E0],"parents":[2147483647,0,0,1,1,2,2,3,3,4,4,5,5,6,6],"right_children":[2,4,6,8,10,12,14,-1,-1,-1,-1,-1,-1,-1,-1],"split_conditions":[2.615648E0,4.5502537E-1,2.893416E3,1.6843964E1,3.3997173E0,1.824762E3,2.5452988E0,-3.2030933E-2,-9.6469864E-2,2.8390488E-2,-3.183287E-2,-4.3728404E-2,-2.5559245E-3,3.143795E-2,-1.7272256E-2],"split_indices":[3,4,0,6,2,1,2,0,0,0,0,0,0,0,0],"split_type":[0,0,0,0,0,0,0,0,0,0,0,0,0,0,0],"sum_hessian":[1.7279425E3,1.0413337E3,6.8660876E2,6.348664E1,9.778471E2,5.317801E2,1.5482866E2,5.1382946E1,1.2103695E1,9.2187604E2,5.597109E1,2.3849716E2,2.9328293E2,1.2369157E2,3.1137098E1],"tree_param":{"num_deleted":"0","num_feature":"7","num_nodes":"15","size_leaf_vector":"1"}},{"base_weights":[1.3062398E-1,5.574589E-1,-4.1104663E-2,3.2338008E-1,7.237857E-1,-4.4496137E-1,1.553884E-1,-1.5678103E-3,3.141683E-2,4.916499E-2,2.8009763E-2,-3.128734E-3,-4.272998E-2,-8.88894E-3,2.7982103E-2],"categories":[],"categories_nodes":[],"categories_segments":[],"categories_sizes":[],"default_left":[0,0,0,0,0,0,0,0,0,0,0,0,0,0,0],"id":37,"left_children":[1,3,5,7,9,11,13,-1,-1,-1,-1,-1,-1,-1,-1],"loss_changes":[1.2549136E2,1.8888657E1,9.700563E1,1.6219738E1,8.581543E0,4.6842842E1,8.4979E1,0E0,0E0,0E0,0E0,0E0,0E0,0E0,0E0],"parents":[2147483647,0,0,1,1,2,2,3,3,4,4,5,5,6,6],"right_children":[2,4,6,8,10,12,14,-1,-1,-1,-1,-1,-1,-1,-1],"split_conditions":[8.150413E-1,2.0338755E0,1.4284099E3,1.600164E3,2.5264525E0,1.7834548E0,1.8043136E3,-1.5678103E-3,3.141683E-2,4.916499E-2,2.8009763E-2,-3.128734E-3,-4.272998E-2,-8.88894E-3,2.7982103E-2],"split_indices":[2,4,0,0,3,3,1,0,0,0,0,0,0,0,0],"split_type":[0,0,0,0,0,0,0,0,0,0,0,0,0,0,0],"sum_hessian":[1.7107166E3,4.9016232E2,1.2205542E3,2.0483441E2,2.853279E2,3.9907065E2,8.214836E2,8.0280785E1,1.2455363E2,1.8033893E2,1.04989E2,1.7397815E2,2.250925E2,4.2518304E2,3.963005E2],"tree_param":{"num_deleted":"0","num_feature":"7","num_nodes":"15","size_leaf_vector":"1"}},{"base_weights":[1.245968E-1,-3.0625996E-1,2.8675938E-1,2.8174388E-1,-5.0753087E-1,3.664222E-1,-6.7427534E-1,2.3866674E-2,-3.6808014E-2,-3.6641397E-2,1.0913423E-2,2.719078E-2,-1.4889119E-2,-7.6688334E-2,-7.174948E-3],"categories":[],"categories_nodes":[],"categories_segments":[],"categories_sizes":[],"default_left":[0,0,0,0,0,0,0,0,0,0,0,0,0,0,0],"id":38,"left_children":[1,3,5,7,9,11,13,-1,-1,-1,-1,-1,-1,-1,-1],"loss_changes":[1.18588806E2,5.5088722E1,9.462691E1,1.5048721E1,3.1877312E1,7.695207E1,3.4320362E1,0E0,0E0,0E0,0E0,0E0,0E0,0E0,0E0],"parents":[2147483647,0,0,1,1,2,2,3,3,4,4,5,5,6,6],"right_children":[2,4,6,8,10,12,14,-1,-1,-1,-1,-1,-1,-1,-1],"split_conditions":[1.0484529E0,3.6499355E-2,4.0781376E1,5.68517E0,3.191383E3,3.77376E-1,3.4603379E0,2.3866674E-2,-3.6808014E-2,-3.6641397E-2,1.0913423E-2,2.719078E-2,-1.4889119E-2,-7.6688334E-2,-7.174948E-3],"split_indices":[4,5,6,3,1,5,4,0,0,0,0,0,0,0,0],"split_type":[0,0,0,0,0,0,0,0,0,0,0,0,0,0,0],"sum_hessian":[1.695049E3,4.6327228E2,1.2317767E3,1.18035904E2,3.452364E2,1.1380586E3,9.371812E1,1.0351659E2,1.4519321E1,2.905916E2,5.464477E1,9.7117584E2,1.6688277E2,4.180687E1,5.191125E1],"tree_param":{"num_deleted":"0","num_feature":"7","num_nodes":"15","size_leaf_vector":"1"}},{"base_weights":[1.188152E-1,2.2465174E-1,-5.170255E-1,-7.591542E-2,4.3322676E-1,-6.286331E-1,3.086729E-1,-3.565899E-2,8.0246795E-3,-2.3315478E-2,2.8663523E-2,-1.1771789E-2,-4.6182573E-2,3.34562E-2,-2.7952753E-2],"categories":[],"categories_nodes":[],"categories_segments":[],"categories_sizes":[],"default_left":[0,0,0,0,0,0,0,0,0,0,0,0,0,0,0],"id":39,"left_children":[1,3,5,7,9,11,13,-1,-1,-1,-1,-1,-1,-1,-1],"loss_changes":[1.1311514E2,9.032258E1,2.2303352E1,6.971152E1,4.7775696E1,1.5670357E1,6.6796026E0,0E0,0E0,0E0,0E0,0E0,0E0,0E0,0E0],"parents":[2147483647,0,0,1,1,2,2,3,3,4,4,5,5,6,6],"right_children":[2,4,6,8,10,12,14,-1,-1,-1,-1,-1,-1,-1,-1],"split_conditions":[2.8833451E0,1.6721212E3,3.6967004E3,1.7950171E3,5.4509467E-1,9.468882E-2,5.836056E-1,-3.565899E-2,8.0246795E-3,-2.3315478E-2,2.8663523E-2,-1.1771789E-2,-4.6182573E-2,3.34562E-2,-2.7952753E-2],"split_indices":[2,0,0,1,4,5,5,0,0,0,0,0,0,0,0],"split_type":[0,0,0,0,0,0,0,0,0,0,0,0,0,0,0],"sum_hessian":[1.6781547E3,1.4392383E3,2.3891646E2,5.898584E2,8.493798E2,2.1067827E2,2.8238195E1,1.6660762E2,4.2325082E2,6.204661E1,7.873332E2,6.2677734E1,1.4800053E2,2.1191956E1,7.046239E0],"tree_param":{"num_deleted":"0","num_feature":"7","num_nodes":"15","size_leaf_vector":"1"}},{"base_weights":[1.1323343E-1,3.2653958E-1,-1.9973522E-1,-7.185445E-1,3.9845937E-1,-3.8498318E-1,2.6041967E-1,-2.83006E-2,-8.982631E-2,2.6190784E-2,-2.7876666E-2,-1.4116465E-2,-6.3662745E-2,1.8128771E-2,-7.2522715E-2],"categories":[],"categories_nodes":[],"categories_segments":[],"categories_sizes":[],"default_left":[0,0,0,0,0,0,0,0,0,0,0,0,0,0,0],"id":40,"left_children":[1,3,5,7,9,11,13,-1,-1,-1,-1,-1,-1,-1,-1],"loss_changes":[1.1110806E2,7.466367E1,5.7622276E1,1.1451496E1,4.7969772E1,4.8200172E1,1.6907635E1,0E0,0E0,0E0,0E0,0E0,0E0,0E0,0E0],"parents":[2147483647,0,0,1,1,2,2,3,3,4,4,5,5,6,6],"right_children":[2,4,6,8,10,12,14,-1,-1,-1,-1,-1,-1,-1,-1],"split_conditions":[2.615648E0,4.5502537E-1,3.9438148E0,1.6843964E1,3.3997173E0,3.5350272E-1,1.307285E2,-2.83006E-2,-8.982631E-2,2.6190784E-2,-2.7876666E-2,-1.4116465E-2,-6.3662745E-2,1.8128771E-2,-7.2522715E-2],"split_indices":[3,4,4,6,2,5,6,0,0,0,0,0,0,0,0],"split_type":[0,0,0,0,0,0,0,0,0,0,0,0,0,0,0],"sum_hessian":[1.6623602E3,9.8855786E2,6.738024E2,6.307074E1,9.254871E2,4.805195E2,1.9328296E2,5.109233E1,1.1978408E1,8.6875226E2,5.6734856E1,4.0443936E2,7.608014E1,1.8723567E2,6.0472784E0],"tree_param":{"num_deleted":"0","num_feature":"7","num_nodes":"15","size_leaf_vector":"1"}},{"base_weights":[1.0778605E-1,5.1891005E-1,-5.028183E-2,2.9040143E-1,6.895206E-1,-1.7043811E-1,5.2689886E-1,2.837518E-2,-5.537073E-3,4.7799762E-2,2.563791E-2,-5.5131973E-3,-6.6035695E-2,3.221197E-2,-6.689772E-2],"categories":[],"categories_nodes":[],"categories_segments":[],"categories_sizes":[],"default_left":[0,0,0,0,0,0,0,0,0,0,0,0,0,0,0],"id":41,"left_children":[1,3,5,7,9,11,13,-1,-1,-1,-1,-1,-1,-1,-1],"loss_changes":[1.0710435E2,1.7642525E1,8.269165E1,1.5659214E1,8.751236E0,7.18053E1,1.2771347E1,0E0,0E0,0E0,0E0,0E0,0E0,0E0,0E0],"parents":[2147483647,0,0,1,1,2,2,3,3,4,4,5,5,6,6],"right_children":[2,4,6,8,10,12,14,-1,-1,-1,-1,-1,-1,-1,-1],"split_conditions":[8.150413E-1,2.0338755E0,3.3247935E3,8.385281E0,2.5264525E0,4.6726517E1,3.9520233E0,2.837518E-2,-5.537073E-3,4.7799762E-2,2.563791E-2,-5.5131973E-3,-6.6035695E-2,3.221197E-2,-6.689772E-2],"split_indices":[2,4,0,6,3,6,2,0,0,0,0,0,0,0,0],"split_type":[0,0,0,0,0,0,0,0,0,0,0,0,0,0,0],"sum_hessian":[1.6467253E3,4.5667123E2,1.1900542E3,1.9636728E2,2.6030396E2,9.8558234E2,2.044718E2,1.2830917E2,6.8058105E1,1.6176804E2,9.853592E1,9.1722046E2,6.836189E1,2.0100714E2,3.4646733E0],"tree_param":{"num_deleted":"0","num_feature":"7","num_nodes":"15","size_leaf_vector":"1"}},{"base_weights":[1.0261399E-1,-9.3533225E-2,4.1808477E-1,2.2720426E-1,-3.3705628E-1,6.82799E-1,1.9533077E-1,2.4593232E-2,-1.7399535E-2,-2.7656596E-2,2.2424212E-2,4.1881733E-2,-1.6179822E-2,2.3652485E-2,-1.1519441E-2],"categories":[],"categories_nodes":[],"categories_segments":[],"categories_sizes":[],"default_left":[0,0,0,0,0,0,0,0,0,0,0,0,0,0,0],"id":42,"left_children":[1,3,5,7,9,11,13,-1,-1,-1,-1,-1,-1,-1,-1],"loss_changes":[1.0122771E2,7.889819E1,3.6845703E1,4.6797142E1,6.088452E1,1.3334625E1,2.9500204E1,0E0,0E0,0E0,0E0,0E0,0E0,0E0,0E0],"parents":[2147483647,0,0,1,1,2,2,3,3,4,4,5,5,6,6],"right_children":[2,4,6,8,10,12,14,-1,-1,-1,-1,-1,-1,-1,-1],"split_conditions":[2.8614788E0,7.539855E-2,1.7072783E0,1.3054204E1,3.4404165E3,3.5103054E0,1.4388732E1,2.4593232E-2,-1.7399535E-2,-2.7656596E-2,2.2424212E-2,4.1881733E-2,-1.6179822E-2,2.3652485E-2,-1.1519441E-2],"split_indices":[4,5,3,6,1,2,6,0,0,0,0,0,0,0,0],"split_type":[0,0,0,0,0,0,0,0,0,0,0,0,0,0,0],"sum_hessian":[1.6342732E3,1.00814935E3,6.261238E2,4.3512512E2,5.7302423E2,2.8517044E2,3.4095334E2,3.154377E2,1.19687416E2,4.7801697E2,9.500727E1,2.7201144E2,1.3158991E1,2.2022635E2,1.20727005E2],"tree_param":{"num_deleted":"0","num_feature":"7","num_nodes":"15","size_leaf_vector":"1"}},{"base_weights":[9.7821526E-2,-5.0932266E-2,5.026716E-1,-3.7611282E-1,1.7092015E-1,5.5878913E-1,-5.536041E-1,-5.1705563E-3,-3.99316E-2,-8.706638E-3,2.512718E-2,3.7871853E-2,-1.3189258E-3,-1.4223335E-3,-8.41476E-2],"categories":[],"categories_nodes":[],"categories_segments":[],"categories_sizes":[],"default_left":[0,0,0,0,0,0,0,0,0,0,0,0,0,0,0],"id":43,"left_children":[1,3,5,7,9,11,13,-1,-1,-1,-1,-1,-1,-1,-1],"loss_changes":[9.768996E1,8.56872E1,2.6144455E1,4.4040634E1,6.0981155E1,2.4514511E1,1.0830826E1,0E0,0E0,0E0,0E0,0E0,0E0,0E0,0E0],"parents":[2147483647,0,0,1,1,2,2,3,3,4,4,5,5,6,6],"right_children":[2,4,6,8,10,12,14,-1,-1,-1,-1,-1,-1,-1,-1],"split_conditions":[2.720286E3,1.7950171E3,7.640346E0,2.5264525E0,1.2551792E3,3.77376E-1,2.3598704E0,-5.1705563E-3,-3.99316E-2,-8.706638E-3,2.512718E-2,3.7871853E-2,-1.3189258E-3,-1.4223335E-3,-8.41476E-2],"split_indices":[0,1,3,3,0,5,2,0,0,0,0,0,0,0,0],"split_type":[0,0,0,0,0,0,0,0,0,0,0,0,0,0,0],"sum_hessian":[1.6207124E3,1.185865E3,4.3484738E2,4.806525E2,7.052125E2,4.133576E2,2.1489761E1,2.5459216E2,2.2606032E2,3.196357E2,3.8557678E2,3.517739E2,6.1583725E1,1.4262967E1,7.2267933E0],"tree_param":{"num_deleted":"0","num_feature":"7","num_nodes":"15","size_leaf_vector":"1"}},{"base_weights":[9.304832E-2,4.8920542E-1,-5.361587E-2,2.6833004E-1,6.617907E-1,2.3583844E-1,-2.733776E-1,1.150518E-3,3.2384668E-2,3.9430585E-2,-3.7379555E-2,-1.1340236E-2,2.4740186E-2,-3.430881E-2,-2.6145463E-3],"categories":[],"categories_nodes":[],"categories_segments":[],"categories_sizes":[],"default_left":[0,0,0,0,0,0,0,0,0,0,0,0,0,0,0],"id":44,"left_children":[1,3,5,7,9,11,13,-1,-1,-1,-1,-1,-1,-1,-1],"loss_changes":[9.358719E1,1.6411415E1,7.487776E1,1.4158983E1,8.707146E0,4.317512E1,4.948444E1,0E0,0E0,0E0,0E0,0E0,0E0,0E0,0E0],"parents":[2147483647,0,0,1,1,2,2,3,3,4,4,5,5,6,6],"right_children":[2,4,6,8,10,12,14,-1,-1,-1,-1,-1,-1,-1,-1],"split_conditions":[8.150413E-1,2.0338755E0,1.7072783E0,1.9525325E3,8.771699E0,1.0269016E0,1.5796997E3,1.150518E-3,3.2384668E-2,3.9430585E-2,-3.7379555E-2,-1.1340236E-2,2.4740186E-2,-3.430881E-2,-2.6145463E-3],"split_indices":[2,4,3,0,3,4,0,0,0,0,0,0,0,0,0],"split_type":[0,0,0,0,0,0,0,0,0,0,0,0,0,0,0],"sum_hessian":[1.6092864E3,4.3418E2,1.1751064E3,1.915668E2,2.426132E2,5.0710764E2,6.679988E2,1.04828995E2,8.67378E1,2.3840596E2,4.207249E0,1.5763585E2,3.4947177E2,2.7463687E2,3.933619E2],"tree_param":{"num_deleted":"0","num_feature":"7","num_nodes":"15","size_leaf_vector":"1"}},{"base_weights":[8.867827E-2,-4.9931934E-1,1.8265568E-1,-1.0322737E0,-2.9169258E-1,2.4692506E-1,-7.717796E-1,4.1012555E-2,-6.201352E-2,5.8053243E-3,-3.1864215E-2,2.6049871E-2,-1.4009693E-3,-7.589025E-2,-8.708027E-3],"categories":[],"categories_nodes":[],"categories_segments":[],"categories_sizes":[],"default_left":[0,0,0,0,0,0,0,0,0,0,0,0,0,0,0],"id":45,"left_children":[1,3,5,7,9,11,13,-1,-1,-1,-1,-1,-1,-1,-1],"loss_changes":[8.832998E1,2.4077965E1,8.468907E1,6.0425186E0,1.6645088E1,7.266664E1,2.9600449E1,0E0,0E0,0E0,0E0,0E0,0E0,0E0,0E0],"parents":[2147483647,0,0,1,1,2,2,3,3,4,4,5,5,6,6],"right_children":[2,4,6,8,10,12,14,-1,-1,-1,-1,-1,-1,-1,-1],"split_conditions":[6.352744E-1,3.8485122E-1,4.6726517E1,2.6533064E-1,5.524148E-2,2.4981859E0,3.4603379E0,4.1012555E-2,-6.201352E-2,5.8053243E-3,-3.1864215E-2,2.6049871E-2,-1.4009693E-3,-7.589025E-2,-8.708027E-3],"split_indices":[4,4,6,2,5,3,4,0,0,0,0,0,0,0,0],"split_type":[0,0,0,0,0,0,0,0,0,0,0,0,0,0,0],"sum_hessian":[1.5958364E3,2.1931482E2,1.3765216E3,6.0372837E1,1.5894199E2,1.2903723E3,8.614928E1,1.2802691E0,5.909257E1,6.411643E1,9.482555E1,7.310873E2,5.5928503E2,4.498604E1,4.1163242E1],"tree_param":{"num_deleted":"0","num_feature":"7","num_nodes":"15","size_leaf_vector":"1"}},{"base_weights":[8.4366396E-2,-4.274592E-2,5.0536317E-1,-3.3270526E-1,1.6377217E-1,6.439029E-1,1.313757E-1,2.2555678E-3,-3.1598695E-2,-8.098385E-3,2.351962E-2,3.922701E-2,3.4587875E-3,-3.301945E-2,1.9557936E-2],"categories":[],"categories_nodes":[],"categories_segments":[],"categories_sizes":[],"default_left":[0,0,0,0,0,0,0,0,0,0,0,0,0,0,0],"id":46,"left_children":[1,3,5,7,9,11,13,-1,-1,-1,-1,-1,-1,-1,-1],"loss_changes":[8.477515E1,7.295448E1,1.8949654E1,4.1179596E1,5.3533257E1,6.233177E0,1.51073265E1,0E0,0E0,0E0,0E0,0E0,0E0,0E0,0E0],"parents":[2147483647,0,0,1,1,2,2,3,3,4,4,5,5,6,6],"right_children":[2,4,6,8,10,12,14,-1,-1,-1,-1,-1,-1,-1,-1],"split_conditions":[2.893416E3,1.7950171E3,2.0949485E0,6.579676E-2,1.2551792E3,7.047165E0,1.0944419E3,2.2555678E-3,-3.1598695E-2,-8.098385E-3,2.351962E-2,3.922701E-2,3.4587875E-3,-3.301945E-2,1.9557936E-2],"split_indices":[0,1,2,5,0,3,1,0,0,0,0,0,0,0,0],"split_type":[0,0,0,0,0,0,0,0,0,0,0,0,0,0,0],"sum_hessian":[1.5827676E3,1.2163971E3,3.663705E2,5.0572656E2,7.1067053E2,2.6681134E2,9.955918E1,1.8732516E2,3.184014E2,3.1774356E2,3.92927E2,2.4947733E2,1.7334015E1,2.2369299E1,7.718988E1],"tree_param":{"num_deleted":"0","num_feature":"7","num_nodes":"15","size_leaf_vector":"1"}},{"base_weights":[8.025701E-2,-9.663455E-2,3.764715E-1,1.04943335E-1,-4.3321064E-1,4.6622697E-1,-2.5938183E-1,1.6102606E-2,-2.357796E-2,-2.9930767E-2,3.716459E-2,3.3025403E-2,-1.8043978E-3,-4.6109676E-2,1.0844025E-2],"categories":[],"categories_nodes":[],"categories_segments":[],"categories_sizes":[],"default_left":[0,0,0,0,0,0,0,0,0,0,0,0,0,0,0],"id":47,"left_children":[1,3,5,7,9,11,13,-1,-1,-1,-1,-1,-1,-1,-1],"loss_changes":[8.249102E1,6.694548E1,3.3711624E1,5.616059E1,3.5792786E1,2.8191086E1,1.8093956E1,0E0,0E0,0E0,0E0,0E0,0E0,0E0,0E0],"parents":[2147483647,0,0,1,1,2,2,3,3,4,4,5,5,6,6],"right_children":[2,4,6,8,10,12,14,-1,-1,-1,-1,-1,-1,-1,-1],"split_conditions":[2.8614788E0,1.3779461E-1,5.3788996E-1,1.4050103E1,4.675876E3,2.4675707E1,5.988825E0,1.6102606E-2,-2.357796E-2,-2.9930767E-2,3.716459E-2,3.3025403E-2,-1.8043978E-3,-4.6109676E-2,1.0844025E-2],"split_indices":[4,5,5,6,1,6,4,0,0,0,0,0,0,0,0],"split_type":[0,0,0,0,0,0,0,0,0,0,0,0,0,0,0],"sum_hessian":[1.5726267E3,9.850527E2,5.8757404E2,6.165091E2,3.685436E2,5.151268E2,7.244723E1,4.601668E2,1.5634229E2,3.410733E2,2.7470297E1,4.2197803E2,9.314875E1,3.2356686E1,4.0090538E1],"tree_param":{"num_deleted":"0","num_feature":"7","num_nodes":"15","size_leaf_vector":"1"}},{"base_weights":[7.6414384E-2,4.5387876E-1,-5.7975657E-2,5.869161E-1,1.7107588E-1,5.754712E-2,-5.4773164E-1,-5.5602163E-2,3.6103338E-2,1.5954971E-2,-3.2866046E-2,-4.110891E-2,7.557968E-3,-1.8787146E-2,-5.2094776E-2],"categories":[],"categories_nodes":[],"categories_segments":[],"categories_sizes":[],"default_left":[0,0,0,0,0,0,0,0,0,0,0,0,0,0,0],"id":48,"left_children":[1,3,5,7,9,11,13,-1,-1,-1,-1,-1,-1,-1,-1],"loss_changes":[7.927921E1,1.533683E1,6.526688E1,1.9112427E1,1.0739498E1,5.3791676E1,1.7182549E1,0E0,0E0,0E0,0E0,0E0,0E0,0E0,0E0],"parents":[2147483647,0,0,1,1,2,2,3,3,4,4,5,5,6,6],"right_children":[2,4,6,8,10,12,14,-1,-1,-1,-1,-1,-1,-1,-1],"split_conditions":[8.150413E-1,3.0816858E0,5.2679167E0,3.8485122E-1,2.0935562E1,4.8919106E-1,1.3379849E1,-5.5602163E-2,3.6103338E-2,1.5954971E-2,-3.2866046E-2,-4.110891E-2,7.557968E-3,-1.8787146E-2,-5.2094776E-2],"split_indices":[2,3,3,4,6,4,6,0,0,0,0,0,0,0,0],"split_type":[0,0,0,0,0,0,0,0,0,0,0,0,0,0,0],"sum_hessian":[1.5613274E3,4.0931042E2,1.152017E3,2.7763083E2,1.3167961E2,9.328584E2,2.191585E2,6.826736E0,2.7080408E2,1.15653885E2,1.602573E1,8.0859406E1,8.51999E2,1.3728825E2,8.187024E1],"tree_param":{"num_deleted":"0","num_feature":"7","num_nodes":"15","size_leaf_vector":"1"}},{"base_weights":[7.263928E-2,-8.914485E-2,3.7847152E-1,-3.8983253E-1,1.04415834E-1,5.3484285E-1,1.2220283E-2,-3.1860195E-2,1.2704333E-3,-8.097344E-3,2.0613134E-2,3.741316E-2,1.1006054E-2,1.2258188E-2,-3.4157984E-2],"categories":[],"categories_nodes":[],"categories_segments":[],"categories_sizes":[],"default_left":[0,0,0,0,0,0,0,0,0,0,0,0,0,0,0],"id":49,"left_children":[1,3,5,7,9,11,13,-1,-1,-1,-1,-1,-1,-1,-1],"loss_changes":[7.674898E1,5.91064E1,3.0726067E1,2.7167156E1,3.8776344E1,1.5035973E1,1.9922876E1,0E0,0E0,0E0,0E0,0E0,0E0,0E0,0E0],"parents":[2147483647,0,0,1,1,2,2,3,3,4,4,5,5,6,6],"right_children":[2,4,6,8,10,12,14,-1,-1,-1,-1,-1,-1,-1,-1],"split_conditions":[2.3133772E3,1.7950171E3,2.0686548E0,2.6822264E0,1.2551792E3,3.835036E0,4.0619922E-1,-3.1860195E-2,1.2704333E-3,-8.097344E-3,2.0613134E-2,3.741316E-2,1.1006054E-2,1.2258188E-2,-3.4157984E-2],"split_indices":[0,1,2,4,0,3,5,0,0,0,0,0,0,0,0],"split_type":[0,0,0,0,0,0,0,0,0,0,0,0,0,0,0],"sum_hessian":[1.5494669E3,1.0138516E3,5.356153E2,3.966539E2,6.1719775E2,3.7503384E2,1.6058142E2,2.8260614E2,1.1404777E2,3.1463336E2,3.025644E2,2.7860596E2,9.642789E1,1.210843E2,3.9497116E1],"tree_param":{"num_deleted":"0","num_feature":"7","num_nodes":"15","size_leaf_vector":"1"}},{"base_weights":[6.911962E-2,3.2711026E-1,-1.1594752E-1,-4.0925454E-2,4.9503818E-1,-8.286084E-3,-6.5728945E-1,2.8185071E-2,-1.3011126E-2,3.1723615E-2,-2.243636E-2,-2.4342688E-2,7.2058877E-3,-5.1591005E-2,4.9628243E-3],"categories":[],"categories_nodes":[],"categories_segments":[],"categories_sizes":[],"default_left":[0,0,0,0,0,0,0,0,0,0,0,0,0,0,0],"id":50,"left_children":[1,3,5,7,9,11,13,-1,-1,-1,-1,-1,-1,-1,-1],"loss_changes":[7.35723E1,3.979574E1,5.2305183E1,2.0168388E1,2.3002388E1,4.184617E1,2.6917648E1,0E0,0E0,0E0,0E0,0E0,0E0,0E0,0E0],"parents":[2147483647,0,0,1,1,2,2,3,3,4,4,5,5,6,6],"right_children":[2,4,6,8,10,12,14,-1,-1,-1,-1,-1,-1,-1,-1],"split_conditions":[1.5996498E0,1.0879337E0,3.77376E-1,3.6499355E-2,3.3997173E0,9.056292E-1,5.988825E0,2.8185071E-2,-1.3011126E-2,3.1723615E-2,-2.243636E-2,-2.4342688E-2,7.2058877E-3,-5.1591005E-2,4.9628243E-3],"split_indices":[3,4,5,5,2,4,4,0,0,0,0,0,0,0,0],"split_type":[0,0,0,0,0,0,0,0,0,0,0,0,0,0,0],"sum_hessian":[1.5391292E3,6.4258026E2,8.965489E2,2.0156996E2,4.410103E2,7.486696E2,1.4787923E2,5.1754047E1,1.498159E2,4.142031E2,2.6807228E1,1.8174867E2,5.6692096E2,1.1137883E2,3.650039E1],"tree_param":{"num_deleted":"0","num_feature":"7","num_nodes":"15","size_leaf_vector":"1"}},{"base_weights":[6.581702E-2,1.5648189E-1,-4.4025835E-1,3.023094E-1,-1.8460666E-1,-5.3305805E-1,2.7295962E-1,6.4900536E-3,3.252322E-2,-2.2040311E-2,1.6035726E-2,-9.775638E-3,-3.926449E-2,2.4661468E-2,-5.1223252E-2],"categories":[],"categories_nodes":[],"categories_segments":[],"categories_sizes":[],"default_left":[0,0,0,0,0,0,0,0,0,0,0,0,0,0,0],"id":51,"left_children":[1,3,5,7,9,11,13,-1,-1,-1,-1,-1,-1,-1,-1],"loss_changes":[7.017336E1,6.454324E1,1.5527195E1,4.544642E1,3.6169434E1,1.1209049E1,5.407209E0,0E0,0E0,0E0,0E0,0E0,0E0,0E0,0E0],"parents":[2147483647,0,0,1,1,2,2,3,3,4,4,5,5,6,6],"right_children":[2,4,6,8,10,12,14,-1,-1,-1,-1,-1,-1,-1,-1],"split_conditions":[2.8833451E0,1.3857624E1,3.6967004E3,2.2636342E0,4.540395E0,9.468882E-2,3.9520233E0,6.4900536E-3,3.252322E-2,-2.2040311E-2,1.6035726E-2,-9.775638E-3,-3.926449E-2,2.4661468E-2,-5.1223252E-2],"split_indices":[2,6,0,4,4,5,2,0,0,0,0,0,0,0,0],"split_type":[0,0,0,0,0,0,0,0,0,0,0,0,0,0,0],"sum_hessian":[1.5268878E3,1.2954882E3,2.3139966E2,9.0757935E2,3.8790875E2,2.0498131E2,2.6418343E1,5.3029474E2,3.7728464E2,2.7133896E2,1.165698E2,6.1074177E1,1.4390714E2,2.3838442E1,2.5798998E0],"tree_param":{"num_deleted":"0","num_feature":"7","num_nodes":"15","size_leaf_vector":"1"}},{"base_weights":[6.2607594E-2,-5.0932303E-2,4.5887998E-1,-1.5031464E-2,-1.5481943E0,5.1283437E-1,-4.1428384E-1,-7.936899E-3,2.203475E-2,1.0036777E-3,-9.850876E-2,3.4937162E-2,1.1872036E-3,-5.554158E-2,1.1077477E-2],"categories":[],"categories_nodes":[],"categories_segments":[],"categories_sizes":[],"default_left":[0,0,0,0,0,0,0,0,0,0,0,0,0,0,0],"id":52,"left_children":[1,3,5,7,9,11,13,-1,-1,-1,-1,-1,-1,-1,-1],"loss_changes":[6.8295685E1,6.3424973E1,1.6137909E1,5.6886787E1,7.367897E0,1.5113541E1,6.996869E0,0E0,0E0,0E0,0E0,0E0,0E0,0E0,0E0],"parents":[2147483647,0,0,1,1,2,2,3,3,4,4,5,5,6,6],"right_children":[2,4,6,8,10,12,14,-1,-1,-1,-1,-1,-1,-1,-1],"split_conditions":[2.893416E3,1.0311011E2,7.640346E0,3.9438148E0,7.028707E-1,3.77376E-1,3.8427444E3,-7.936899E-3,2.203475E-2,1.0036777E-3,-9.850876E-2,3.4937162E-2,1.1872036E-3,-5.554158E-2,1.1077477E-2],"split_indices":[0,6,3,4,2,5,0,0,0,0,0,0,0,0,0],"split_type":[0,0,0,0,0,0,0,0,0,0,0,0,0,0,0],"sum_hessian":[1.5164078E3,1.1793672E3,3.3704065E2,1.1527373E3,2.6629904E1,3.1781494E2,1.9225702E1,8.811287E2,2.7160858E2,2.6906455E0,2.3939259E1,2.655555E2,5.225943E1,9.742187E0,9.483516E0],"tree_param":{"num_deleted":"0","num_feature":"7","num_nodes":"15","size_leaf_vector":"1"}},{"base_weights":[5.945698E-2,3.0869576E-1,-1.1615914E-1,-5.7841796E-1,3.7200412E-1,-1.5199183E-2,-6.16863E-1,8.589282E-3,-4.661575E-2,2.4580214E-2,-2.5168566E-2,4.380927E-3,-3.1748634E-2,-4.7607612E-2,3.4342925E-3],"categories":[],"categories_nodes":[],"categories_segments":[],"categories_sizes":[],"default_left":[0,0,0,0,0,0,0,0,0,0,0,0,0,0,0],"id":53,"left_children":[1,3,5,7,9,11,13,-1,-1,-1,-1,-1,-1,-1,-1],"loss_changes":[6.6066895E1,3.525181E1,4.4765E1,7.2839966E0,2.6956207E1,3.644535E1,2.150322E1,0E0,0E0,0E0,0E0,0E0,0E0,0E0,0E0],"parents":[2147483647,0,0,1,1,2,2,3,3,4,4,5,5,6,6],"right_children":[2,4,6,8,10,12,14,-1,-1,-1,-1,-1,-1,-1,-1],"split_conditions":[1.5996498E0,4.5502537E-1,3.77376E-1,3.769593E-2,3.3997173E0,7.047165E0,5.988825E0,8.589282E-3,-4.661575E-2,2.4580214E-2,-2.5168566E-2,4.380927E-3,-3.1748634E-2,-4.7607612E-2,3.4342925E-3],"split_indices":[3,4,5,5,2,3,4,0,0,0,0,0,0,0,0],"split_type":[0,0,0,0,0,0,0,0,0,0,0,0,0,0,0],"sum_hessian":[1.507579E3,6.2285284E2,8.8472614E2,4.0946724E1,5.819061E2,7.371254E2,1.4760072E2,1.0061282E1,3.088544E1,5.44361E2,3.7545113E1,6.306952E2,1.0643021E2,1.1205236E2,3.5548355E1],"tree_param":{"num_deleted":"0","num_feature":"7","num_nodes":"15","size_leaf_vector":"1"}},{"base_weights":[5.643778E-2,-2.0747216E-1,2.1828994E-1,-4.399429E-1,1.5056919E-1,-3.0228436E-2,4.4564632E-1,-3.3495944E-2,1.1583606E-2,2.2545287E-2,-1.2226762E-2,1.115838E-2,-2.0883402E-2,2.6974307E-2,-1.326768E-1],"categories":[],"categories_nodes":[],"categories_segments":[],"categories_sizes":[],"default_left":[0,0,0,0,0,0,0,0,0,0,0,0,0,0,0],"id":54,"left_children":[1,3,5,7,9,11,13,-1,-1,-1,-1,-1,-1,-1,-1],"loss_changes":[6.408945E1,4.7550392E1,5.2553135E1,3.215339E1,1.996864E1,3.3493183E1,3.4238983E1,0E0,0E0,0E0,0E0,0E0,0E0,0E0,0E0],"parents":[2147483647,0,0,1,1,2,2,3,3,4,4,5,5,6,6],"right_children":[2,4,6,8,10,12,14,-1,-1,-1,-1,-1,-1,-1,-1],"split_conditions":[1.5383972E3,2.6253943E3,1.6530411E3,3.9438148E0,1.8104848E0,1.8508463E0,2.3277086E2,-3.3495944E-2,1.1583606E-2,2.2545287E-2,-1.2226762E-2,1.115838E-2,-2.0883402E-2,2.6974307E-2,-1.326768E-1],"split_indices":[0,1,1,4,2,2,6,0,0,0,0,0,0,0,0],"split_type":[0,0,0,0,0,0,0,0,0,0,0,0,0,0,0],"sum_hessian":[1.4983578E3,5.69489E2,9.288688E2,3.4515585E2,2.2433313E2,4.441954E2,4.846734E2,2.819303E2,6.3225544E1,1.3453839E2,8.979475E1,2.6572516E2,1.7847023E2,4.8118906E2,3.4843588E0],"tree_param":{"num_deleted":"0","num_feature":"7","num_nodes":"15","size_leaf_vector":"1"}},{"base_weights":[5.3633902E-2,4.0075696E-1,-6.3849024E-2,2.8319487E-1,7.0239425E-1,-2.8713811E-2,-1.4075981E0,-6.02707E-2,2.0119777E-2,4.1602045E-2,-2.1588406E-2,-1.8292848E-2,7.2485423E-3,-9.446969E-2,-4.4608703E-3],"categories":[],"categories_nodes":[],"categories_segments":[],"categories_sizes":[],"default_left":[0,0,0,0,0,0,0,0,0,0,0,0,0,0,0],"id":55,"left_children":[1,3,5,7,9,11,13,-1,-1,-1,-1,-1,-1,-1,-1],"loss_changes":[6.0773186E1,1.3163094E1,5.2545185E1,2.4995184E1,2.8865204E0,4.8959324E1,8.914814E0,0E0,0E0,0E0,0E0,0E0,0E0,0E0,0E0],"parents":[2147483647,0,0,1,1,2,2,3,3,4,4,5,5,6,6],"right_children":[2,4,6,8,10,12,14,-1,-1,-1,-1,-1,-1,-1,-1],"split_conditions":[8.150413E-1,2.7554458E3,1.0311011E2,9.4850037E2,7.0288026E-1,1.4284099E3,9.730592E0,-6.02707E-2,2.0119777E-2,4.1602045E-2,-2.1588406E-2,-1.8292848E-2,7.2485423E-3,-9.446969E-2,-4.4608703E-3],"split_indices":[2,0,6,1,5,0,4,0,0,0,0,0,0,0,0],"split_type":[0,0,0,0,0,0,0,0,0,0,0,0,0,0,0],"sum_hessian":[1.4886042E3,3.7580728E2,1.112797E3,2.7180936E2,1.03997925E2,1.0854373E3,2.7359726E1,1.2416817E1,2.5939255E2,1.0214125E2,1.8566746E0,3.7765076E2,7.077865E2,2.2977703E1,4.3820224E0],"tree_param":{"num_deleted":"0","num_feature":"7","num_nodes":"15","size_leaf_vector":"1"}},{"base_weights":[5.085667E-2,1.4761916E-1,-3.5985819E-1,-6.418489E-1,2.0452951E-1,-5.309841E-1,6.371226E-2,-7.365068E-2,-2.500994E-2,1.3409231E-2,-6.2450986E-2,-3.6064137E-2,2.7344564E-2,1.8182108E-2,-3.386646E-2],"categories":[],"categories_nodes":[],"categories_segments":[],"categories_sizes":[],"default_left":[0,0,0,0,0,0,0,0,0,0,0,0,0,0,0],"id":56,"left_children":[1,3,5,7,9,11,13,-1,-1,-1,-1,-1,-1,-1,-1],"loss_changes":[5.8957966E1,5.405873E1,2.0539883E1,1.0139061E1,4.2721867E1,2.0193459E1,1.3829517E1,0E0,0E0,0E0,0E0,0E0,0E0,0E0,0E0],"parents":[2147483647,0,0,1,1,2,2,3,3,4,4,5,5,6,6],"right_children":[2,4,6,8,10,12,14,-1,-1,-1,-1,-1,-1,-1,-1],"split_conditions":[5.1673055E0,4.5502537E-1,2.5381426E3,2.8861243E-1,1.0311011E2,3.878944E3,2.469351E0,-7.365068E-2,-2.500994E-2,1.3409231E-2,-6.2450986E-2,-3.6064137E-2,2.7344564E-2,1.8182108E-2,-3.386646E-2],"split_indices":[3,4,1,4,6,0,2,0,0,0,0,0,0,0,0],"split_type":[0,0,0,0,0,0,0,0,0,0,0,0,0,0,0],"sum_hessian":[1.481189E3,1.1992839E3,2.8190506E2,7.994857E1,1.1193353E3,2.006053E2,8.129975E1,1.8118732E1,6.1829834E1,1.0953416E3,2.399383E1,1.8318494E2,1.7420366E1,5.8977795E1,2.2321957E1],"tree_param":{"num_deleted":"0","num_feature":"7","num_nodes":"15","size_leaf_vector":"1"}},{"base_weights":[4.8188157E-2,2.901802E-1,-1.0964891E-1,-4.4346698E-2,4.5231116E-1,4.0502638E-2,-4.190623E-1,1.5359848E-2,-1.8426247E-2,2.9132508E-2,-1.7651832E-2,1.3885872E-2,-1.3976173E-2,-3.0878967E-2,1.6633008E-2],"categories":[],"categories_nodes":[],"categories_segments":[],"categories_sizes":[],"default_left":[0,0,0,0,0,0,0,0,0,0,0,0,0,0,0],"id":57,"left_children":[1,3,5,7,9,11,13,-1,-1,-1,-1,-1,-1,-1,-1],"loss_changes":[5.631513E1,3.1585064E1,4.148548E1,1.6592724E1,1.6759201E1,3.4552658E1,2.4857754E1,0E0,0E0,0E0,0E0,0E0,0E0,0E0,0E0],"parents":[2147483647,0,0,1,1,2,2,3,3,4,4,5,5,6,6],"right_children":[2,4,6,8,10,12,14,-1,-1,-1,-1,-1,-1,-1,-1],"split_conditions":[1.5272461E0,1.0879337E0,1.3857624E1,7.539855E-2,3.3997173E0,1.3779461E-1,3.2970342E3,1.5359848E-2,-1.8426247E-2,2.9132508E-2,-1.7651832E-2,1.3885872E-2,-1.3976173E-2,-3.0878967E-2,1.6633008E-2],"split_indices":[3,4,6,5,2,5,0,0,0,0,0,0,0,0,0],"split_type":[0,0,0,0,0,0,0,0,0,0,0,0,0,0,0],"sum_hessian":[1.4725659E3,5.809811E2,8.9158484E2,1.8989491E2,3.9108615E2,6.008665E2,2.907183E2,8.928693E1,1.0060799E2,3.646907E2,2.6395458E1,3.5158304E2,2.492835E2,2.490243E2,4.1694004E1],"tree_param":{"num_deleted":"0","num_feature":"7","num_nodes":"15","size_leaf_vector":"1"}},{"base_weights":[4.58237E-2,-6.903564E-2,3.6597085E-1,7.234441E-2,-4.0826038E-1,4.216566E-1,-5.6985676E-1,1.444562E-2,-1.3180912E-2,-3.2479566E-2,9.407973E-3,2.6193304E-2,-4.2238127E-2,-6.346653E-2,7.2438144E-3],"categories":[],"categories_nodes":[],"categories_segments":[],"categories_sizes":[],"default_left":[0,0,0,0,0,0,0,0,0,0,0,0,0,0,0],"id":58,"left_children":[1,3,5,7,9,11,13,-1,-1,-1,-1,-1,-1,-1,-1],"loss_changes":[5.3919735E1,5.180171E1,2.0415436E1,4.1448833E1,2.8844707E1,1.5217941E1,8.425621E0,0E0,0E0,0E0,0E0,0E0,0E0,0E0,0E0],"parents":[2147483647,0,0,1,1,2,2,3,3,4,4,5,5,6,6],"right_children":[2,4,6,8,10,12,14,-1,-1,-1,-1,-1,-1,-1,-1],"split_conditions":[3.9438148E0,1.3857624E1,3.629662E0,1.3779461E-1,2.558688E3,1.307285E2,7.6360207E0,1.444562E-2,-1.3180912E-2,-3.2479566E-2,9.407973E-3,2.6193304E-2,-4.2238127E-2,-6.346653E-2,7.2438144E-3],"split_indices":[4,6,2,5,0,6,4,0,0,0,0,0,0,0,0],"split_type":[0,0,0,0,0,0,0,0,0,0,0,0,0,0,0],"sum_hessian":[1.4646432E3,1.0784952E3,3.861479E2,7.617884E2,3.1670688E2,3.649795E2,2.1168411E1,4.7795782E2,2.8383057E2,2.4815492E2,6.855194E1,3.5482956E2,1.0149919E1,1.1618536E1,9.549874E0],"tree_param":{"num_deleted":"0","num_feature":"7","num_nodes":"15","size_leaf_vector":"1"}},{"base_weights":[4.3509208E-2,-4.168887E-1,1.2049408E-1,-1.0130506E0,-2.8118187E-1,2.0659338E-1,-3.632877E-1,-1.2817658E-2,-6.852302E-2,-4.7925403E-3,-4.0391058E-2,1.5681827E-2,-2.5270276E-2,-1.56138195E-2,-8.897877E-2],"categories":[],"categories_nodes":[],"categories_segments":[],"categories_sizes":[],"default_left":[0,0,0,0,0,0,0,0,0,0,0,0,0,0,0],"id":59,"left_children":[1,3,5,7,9,11,13,-1,-1,-1,-1,-1,-1,-1,-1],"loss_changes":[5.171639E1,1.6628162E1,5.2126854E1,5.243843E0,1.4296632E1,4.6063694E1,2.0035809E1,0E0,0E0,0E0,0E0,0E0,0E0,0E0,0E0],"parents":[2147483647,0,0,1,1,2,2,3,3,4,4,5,5,6,6],"right_children":[2,4,6,8,10,12,14,-1,-1,-1,-1,-1,-1,-1,-1],"split_conditions":[6.352744E-1,3.4026414E-1,2.6719147E1,6.49399E-1,3.2363217E0,5.3788996E-1,2.3277086E2,-1.2817658E-2,-6.852302E-2,-4.7925403E-3,-4.0391058E-2,1.5681827E-2,-2.5270276E-2,-1.56138195E-2,-8.897877E-2],"split_indices":[4,4,6,3,3,5,6,0,0,0,0,0,0,0,0],"split_type":[0,0,0,0,0,0,0,0,0,0,0,0,0,0,0],"sum_hessian":[1.4566975E3,2.0805237E2,1.2486451E3,3.7379364E1,1.70673E2,1.0604825E3,1.8816257E2,7.415567E0,2.9963797E1,1.1715965E2,5.351335E1,9.6170496E2,9.877763E1,1.7591873E2,1.2243833E1],"tree_param":{"num_deleted":"0","num_feature":"7","num_nodes":"15","size_leaf_vector":"1"}},{"base_weights":[4.1151702E-2,3.4642133E-1,-7.340223E-2,-2.449836E-1,4.4008163E-1,1.530496E-2,-5.2470064E-1,3.686331E-3,-5.558411E-2,2.9521633E-2,-6.3857264E-3,-1.18688475E-2,1.2195387E-2,-4.5909148E-2,-5.608873E-3],"categories":[],"categories_nodes":[],"categories_segments":[],"categories_sizes":[],"default_left":[0,0,0,0,0,0,0,0,0,0,0,0,0,0,0],"id":60,"left_children":[1,3,5,7,9,11,13,-1,-1,-1,-1,-1,-1,-1,-1],"loss_changes":[5.0713036E1,2.202496E1,4.2234764E1,1.2323919E1,1.41469345E1,3.875755E1,2.0330761E1,0E0,0E0,0E0,0E0,0E0,0E0,0E0,0E0],"parents":[2147483647,0,0,1,1,2,2,3,3,4,4,5,5,6,6],"right_children":[2,4,6,8,10,12,14,-1,-1,-1,-1,-1,-1,-1,-1],"split_conditions":[9.258678E-1,5.958679E-1,3.77376E-1,1.1745417E1,2.8833451E0,1.63207E0,3.5729318E0,3.686331E-3,-5.558411E-2,2.9521633E-2,-6.3857264E-3,-1.18688475E-2,1.2195387E-2,-4.5909148E-2,-5.608873E-3],"split_indices":[3,4,5,6,2,4,4,0,0,0,0,0,0,0,0],"split_type":[0,0,0,0,0,0,0,0,0,0,0,0,0,0,0],"sum_hessian":[1.4484666E3,3.9467932E2,1.0537872E3,5.3738625E1,3.409407E2,8.814881E2,1.7229918E2,3.8297447E1,1.5441177E1,3.0031314E2,4.0627583E1,4.1455225E2,4.6693582E2,1.0413083E2,6.816834E1],"tree_param":{"num_deleted":"0","num_feature":"7","num_nodes":"15","size_leaf_vector":"1"}},{"base_weights":[3.908848E-2,-5.7800643E-2,3.979055E-1,-2.9884496E-1,1.2111828E-1,4.5146298E-1,-3.86634E-1,-1.4546358E-2,-8.432626E-2,-1.3195754E-2,1.6157852E-2,2.8234005E-2,-3.558083E-2,-4.971955E-2,9.707624E-3],"categories":[],"categories_nodes":[],"categories_segments":[],"categories_sizes":[],"default_left":[0,0,0,0,0,0,0,0,0,0,0,0,0,0,0],"id":61,"left_children":[1,3,5,7,9,11,13,-1,-1,-1,-1,-1,-1,-1,-1],"loss_changes":[5.010283E1,4.899044E1,1.304874E1,2.5243E1,3.6865505E1,1.2896454E1,5.519538E0,0E0,0E0,0E0,0E0,0E0,0E0,0E0,0E0],"parents":[2147483647,0,0,1,1,2,2,3,3,4,4,5,5,6,6],"right_children":[2,4,6,8,10,12,14,-1,-1,-1,-1,-1,-1,-1,-1],"split_conditions":[2.893416E3,1.7950171E3,7.640346E0,8.771699E0,1.0820208E3,3.7338686E0,3.8427444E3,-1.4546358E-2,-8.432626E-2,-1.3195754E-2,1.6157852E-2,2.8234005E-2,-3.558083E-2,-4.971955E-2,9.707624E-3],"split_indices":[0,1,3,3,0,2,0,0,0,0,0,0,0,0,0],"split_type":[0,0,0,0,0,0,0,0,0,0,0,0,0,0,0],"sum_hessian":[1.4395051E3,1.1341079E3,3.0539722E2,4.8288382E2,6.512242E2,2.8627863E2,1.9118587E1,4.661251E2,1.6758728E1,2.0424329E2,4.4698087E2,2.762809E2,9.997714E0,9.955828E0,9.162761E0],"tree_param":{"num_deleted":"0","num_feature":"7","num_nodes":"15","size_leaf_vector":"1"}},{"base_weights":[3.7019014E-2,3.5604003E-1,-6.6611E-2,2.3852783E-1,6.546448E-1,-1.7466614E-1,2.6973465E-1,-2.631107E-3,2.5661116E-2,4.748734E-2,2.2904547E-2,-1.4664349E-2,2.1124668E-2,-1.0218316E-2,2.4643833E-2],"categories":[],"categories_nodes":[],"categories_segments":[],"categories_sizes":[],"default_left":[0,0,0,0,0,0,0,0,0,0,0,0,0,0,0],"id":62,"left_children":[1,3,5,7,9,11,13,-1,-1,-1,-1,-1,-1,-1,-1],"loss_changes":[4.745645E1,1.2193394E1,3.9436535E1,1.512303E1,4.043785E0,3.6225845E1,1.8992006E1,0E0,0E0,0E0,0E0,0E0,0E0,0E0,0E0],"parents":[2147483647,0,0,1,1,2,2,3,3,4,4,5,5,6,6],"right_children":[2,4,6,8,10,12,14,-1,-1,-1,-1,-1,-1,-1,-1],"split_conditions":[8.150413E-1,4.1715264E0,2.9641567E3,1.7483107E3,2.5264525E0,3.3247935E3,1.1017039E3,-2.631107E-3,2.5661116E-2,4.748734E-2,2.2904547E-2,-1.4664349E-2,2.1124668E-2,-1.0218316E-2,2.4643833E-2],"split_indices":[2,4,1,1,3,0,0,0,0,0,0,0,0,0,0],"split_type":[0,0,0,0,0,0,0,0,0,0,0,0,0,0,0],"sum_hessian":[1.4337402E3,3.5094226E2,1.082798E3,2.5312633E2,9.781593E1,8.198817E2,2.629163E2,1.0753757E2,1.4558876E2,5.6902035E1,4.0913902E1,7.138609E2,1.0602083E2,6.917031E1,1.9374597E2],"tree_param":{"num_deleted":"0","num_feature":"7","num_nodes":"15","size_leaf_vector":"1"}},{"base_weights":[3.528156E-2,1.6728069E-1,-2.0659417E-1,2.2767179E-1,-4.6323517E-1,-2.719505E-1,4.761889E-1,4.419917E-3,2.915585E-2,-4.0789332E-2,2.5234012E-2,-3.719392E-2,-9.38966E-3,3.541314E-2,-4.6858E-2],"categories":[],"categories_nodes":[],"categories_segments":[],"categories_sizes":[],"default_left":[0,0,0,0,0,0,0,0,0,0,0,0,0,0,0],"id":63,"left_children":[1,3,5,7,9,11,13,-1,-1,-1,-1,-1,-1,-1,-1],"loss_changes":[4.562681E1,3.5303825E1,2.2647425E1,3.5656452E1,1.8490953E1,1.8689724E1,8.629837E0,0E0,0E0,0E0,0E0,0E0,0E0,0E0,0E0],"parents":[2147483647,0,0,1,1,2,2,3,3,4,4,5,5,6,6],"right_children":[2,4,6,8,10,12,14,-1,-1,-1,-1,-1,-1,-1,-1],"split_conditions":[3.3519816E0,5.613574E-1,4.424344E3,2.242893E3,6.924243E0,9.056292E-1,7.898397E-1,4.419917E-3,2.915585E-2,-4.0789332E-2,2.5234012E-2,-3.719392E-2,-9.38966E-3,3.541314E-2,-4.6858E-2],"split_indices":[3,5,1,0,4,4,5,0,0,0,0,0,0,0,0],"split_type":[0,0,0,0,0,0,0,0,0,0,0,0,0,0,0],"sum_hessian":[1.4269983E3,9.233861E2,5.0361218E2,8.4325745E2,8.012869E1,4.601665E2,4.344568E1,5.496824E2,2.9357507E2,6.303144E1,1.7097248E1,1.0158681E2,3.585797E2,3.963614E1,3.8095393E0],"tree_param":{"num_deleted":"0","num_feature":"7","num_nodes":"15","size_leaf_vector":"1"}},{"base_weights":[3.3499043E-2,1.5535386E-1,-2.1905017E-1,2.3775388E-1,-3.445095E-1,-3.822785E-1,1.0073835E-1,4.5381365E-3,2.7677564E-2,-2.4790317E-2,2.5918653E-2,-2.7456779E-2,2.3437602E-2,4.222093E-2,-2.1070195E-3],"categories":[],"categories_nodes":[],"categories_segments":[],"categories_sizes":[],"default_left":[0,0,0,0,0,0,0,0,0,0,0,0,0,0,0],"id":64,"left_children":[1,3,5,7,9,11,13,-1,-1,-1,-1,-1,-1,-1,-1],"loss_changes":[4.3768314E1,3.958968E1,2.4203318E1,3.1970932E1,9.715328E0,2.361108E1,1.3764971E1,0E0,0E0,0E0,0E0,0E0,0E0,0E0,0E0],"parents":[2147483647,0,0,1,1,2,2,3,3,4,4,5,5,6,6],"right_children":[2,4,6,8,10,12,14,-1,-1,-1,-1,-1,-1,-1,-1],"split_conditions":[1.3857624E1,2.8833451E0,3.727987E0,2.2636342E0,4.491756E3,3.3247935E3,5.9706515E-1,4.5381365E-3,2.7677564E-2,-2.4790317E-2,2.5918653E-2,-2.7456779E-2,2.3437602E-2,4.222093E-2,-2.1070195E-3],"split_indices":[6,2,4,4,1,0,3,0,0,0,0,0,0,0,0],"split_type":[0,0,0,0,0,0,0,0,0,0,0,0,0,0,0],"sum_hessian":[1.4201284E3,9.581882E2,4.6194025E2,8.2303864E2,1.3514952E2,3.0570508E2,1.562352E2,5.003111E2,3.2272754E2,1.2214396E2,1.3005564E1,2.7281067E2,3.2894394E1,2.701241E1,1.2922278E2],"tree_param":{"num_deleted":"0","num_feature":"7","num_nodes":"15","size_leaf_vector":"1"}},{"base_weights":[3.192458E-2,2.6948375E-1,-9.8066956E-2,3.0807847E-1,-1.6230782E0,-3.2072264E-1,1.02354065E-1,2.301778E-2,-1.0174194E-2,-1.0860146E-1,1.4311352E-2,-2.484956E-2,1.0942037E-2,9.951494E-3,-3.7046563E-2],"categories":[],"categories_nodes":[],"categories_segments":[],"categories_sizes":[],"default_left":[0,0,0,0,0,0,0,0,0,0,0,0,0,0,0],"id":65,"left_children":[1,3,5,7,9,11,13,-1,-1,-1,-1,-1,-1,-1,-1],"loss_changes":[4.367981E1,3.7037518E1,4.08376E1,2.2317333E1,5.621931E0,2.5048576E1,2.5787977E1,0E0,0E0,0E0,0E0,0E0,0E0,0E0,0E0],"parents":[2147483647,0,0,1,1,2,2,3,3,4,4,5,5,6,6],"right_children":[2,4,6,8,10,12,14,-1,-1,-1,-1,-1,-1,-1,-1],"split_conditions":[6.579676E-2,1.307285E2,1.8202124E0,5.4632645E0,5.313243E-2,3.169487E3,9.087758E-1,2.301778E-2,-1.0174194E-2,-1.0860146E-1,1.4311352E-2,-2.484956E-2,1.0942037E-2,9.951494E-3,-3.7046563E-2],"split_indices":[5,6,4,3,5,1,5,0,0,0,0,0,0,0,0],"split_type":[0,0,0,0,0,0,0,0,0,0,0,0,0,0,0],"sum_hessian":[1.4126146E3,4.9921942E2,9.1339514E2,4.9006284E2,9.156561E0,4.3241165E2,4.8098352E2,4.1120462E2,7.885824E1,7.9900913E0,1.1664695E0,3.5452014E2,7.78915E1,4.3990964E2,4.1073883E1],"tree_param":{"num_deleted":"0","num_feature":"7","num_nodes":"15","size_leaf_vector":"1"}},{"base_weights":[3.0266618E-2,-1.8582578E-1,1.6929702E-1,-3.0862936E-1,3.19767E-1,-4.239231E-2,3.747938E-1,-2.4542555E-2,1.2291579E-2,3.0958878E-2,-8.438948E-3,1.2276975E-2,-1.3826363E-2,2.2895135E-2,-9.8767675E-2],"categories":[],"categories_nodes":[],"categories_segments":[],"categories_sizes":[],"default_left":[0,0,0,0,0,0,0,0,0,0,0,0,0,0,0],"id":66,"left_children":[1,3,5,7,9,11,13,-1,-1,-1,-1,-1,-1,-1,-1],"loss_changes":[4.228701E1,3.4316605E1,3.72692E1,2.7799633E1,1.1198419E1,2.1596527E1,2.2979515E1,0E0,0E0,0E0,0E0,0E0,0E0,0E0,0E0],"parents":[2147483647,0,0,1,1,2,2,3,3,4,4,5,5,6,6],"right_children":[2,4,6,8,10,12,14,-1,-1,-1,-1,-1,-1,-1,-1],"split_conditions":[1.5383972E3,3.387609E3,1.6530411E3,3.9438148E0,2.505423E-1,1.3435909E0,2.3277086E2,-2.4542555E-2,1.2291579E-2,3.0958878E-2,-8.438948E-3,1.2276975E-2,-1.3826363E-2,2.2895135E-2,-9.8767675E-2],"split_indices":[0,1,1,4,5,2,6,0,0,0,0,0,0,0,0],"split_type":[0,0,0,0,0,0,0,0,0,0,0,0,0,0,0],"sum_hessian":[1.405483E3,5.5011414E2,8.553689E2,4.4292218E2,1.0719195E2,4.2172702E2,4.3364185E2,3.6077136E2,8.2150826E1,7.274511E1,3.4446835E1,1.8407033E2,2.376567E2,4.2944336E2,4.1984715E0],"tree_param":{"num_deleted":"0","num_feature":"7","num_nodes":"15","size_leaf_vector":"1"}},{"base_weights":[2.8745031E-2,3.1453097E-1,-7.52642E-2,-1.6836129E-1,4.1630584E-1,8.632152E-2,-2.878002E-1,1.6682113E-3,-5.0270308E-2,2.6700895E-2,-2.2520464E-2,1.3266347E-2,-1.3494103E-2,-2.578974E-2,1.9398937E-3],"categories":[],"categories_nodes":[],"categories_segments":[],"categories_sizes":[],"default_left":[0,0,0,0,0,0,0,0,0,0,0,0,0,0,0],"id":67,"left_children":[1,3,5,7,9,11,13,-1,-1,-1,-1,-1,-1,-1,-1],"loss_changes":[4.1631477E1,1.8436012E1,3.5297916E1,9.222316E0,1.2507172E1,2.7305874E1,2.3130344E1,0E0,0E0,0E0,0E0,0E0,0E0,0E0,0E0],"parents":[2147483647,0,0,1,1,2,2,3,3,4,4,5,5,6,6],"right_children":[2,4,6,8,10,12,14,-1,-1,-1,-1,-1,-1,-1,-1],"split_conditions":[9.258678E-1,6.6298354E-1,1.3779461E-1,1.5132843E1,5.1721336E1,1.3857624E1,3.6049085E0,1.6682113E-3,-5.0270308E-2,2.6700895E-2,-2.2520464E-2,1.3266347E-2,-1.3494103E-2,-2.578974E-2,1.9398937E-3],"split_indices":[3,4,5,6,6,6,4,0,0,0,0,0,0,0,0],"split_type":[0,0,0,0,0,0,0,0,0,0,0,0,0,0,0],"sum_hessian":[1.3987874E3,3.72699E2,1.0260884E3,6.4763016E1,3.07936E2,5.8325116E2,4.428372E2,5.1394115E1,1.3368901E1,2.9064563E2,1.7290363E1,4.021906E2,1.810605E2,2.9428076E2,1.4855644E2],"tree_param":{"num_deleted":"0","num_feature":"7","num_nodes":"15","size_leaf_vector":"1"}},{"base_weights":[2.7266257E-2,-8.057589E-1,6.146955E-2,4.142631E-1,-8.706456E-1,2.0049857E-1,-1.5448445E-1,4.349664E-2,-9.6806865E-3,-1.6190836E-2,-5.917583E-2,1.8305195E-2,-5.6041437E-3,-2.0798417E-2,1.5059491E-3],"categories":[],"categories_nodes":[],"categories_segments":[],"categories_sizes":[],"default_left":[0,0,0,0,0,0,0,0,0,0,0,0,0,0,0],"id":68,"left_children":[1,3,5,7,9,11,13,-1,-1,-1,-1,-1,-1,-1,-1],"loss_changes":[3.976198E1,4.7179794E0,4.0255703E1,8.219627E-1,4.6978493E0,2.8901234E1,1.977673E1,0E0,0E0,0E0,0E0,0E0,0E0,0E0,0E0],"parents":[2147483647,0,0,1,1,2,2,3,3,4,4,5,5,6,6],"right_children":[2,4,6,8,10,12,14,-1,-1,-1,-1,-1,-1,-1,-1],"split_conditions":[3.8485122E-1,3.9420894E-1,3.0816858E0,2.4941763E-2,6.8192905E-1,1.5980773E1,1.6721212E3,4.349664E-2,-9.6806865E-3,-1.6190836E-2,-5.917583E-2,1.8305195E-2,-5.6041437E-3,-2.0798417E-2,1.5059491E-3],"split_indices":[4,2,3,5,3,6,0,0,0,0,0,0,0,0,0],"split_type":[0,0,0,0,0,0,0,0,0,0,0,0,0,0,0],"sum_hessian":[1.3928004E3,5.4042053E1,1.3387583E3,2.4571638E0,5.158489E1,8.144775E2,5.242808E2,1.3558351E0,1.1013287E0,1.1690468E1,3.989442E1,5.825268E2,2.3195068E2,2.4316728E2,2.8111356E2],"tree_param":{"num_deleted":"0","num_feature":"7","num_nodes":"15","size_leaf_vector":"1"}},{"base_weights":[2.5824696E-2,2.4840984E-1,-9.410949E-2,2.8510612E-1,-1.4308307E0,-2.709972E-1,1.15457475E-1,-1.21821575E-2,2.1446427E-2,-9.603982E-2,1.5686179E-2,-1.8839948E-2,3.4599006E-2,1.0486834E-2,-3.8017683E-2],"categories":[],"categories_nodes":[],"categories_segments":[],"categories_sizes":[],"default_left":[0,0,0,0,0,0,0,0,0,0,0,0,0,0,0],"id":69,"left_children":[1,3,5,7,9,11,13,-1,-1,-1,-1,-1,-1,-1,-1],"loss_changes":[3.7081562E1,3.037771E1,3.3498962E1,2.1163712E1,4.8513393E0,2.4843159E1,2.1843437E1,0E0,0E0,0E0,0E0,0E0,0E0,0E0,0E0],"parents":[2147483647,0,0,1,1,2,2,3,3,4,4,5,5,6,6],"right_children":[2,4,6,8,10,12,14,-1,-1,-1,-1,-1,-1,-1,-1],"split_conditions":[6.579676E-2,1.307285E2,2.2184627E0,5.958679E-1,5.313243E-2,4.7386147E3,9.8262614E-1,-1.21821575E-2,2.1446427E-2,-9.603982E-2,1.5686179E-2,-1.8839948E-2,3.4599006E-2,1.0486834E-2,-3.8017683E-2],"split_indices":[5,6,4,4,5,1,5,0,0,0,0,0,0,0,0],"split_type":[0,0,0,0,0,0,0,0,0,0,0,0,0,0,0],"sum_hessian":[1.3871774E3,4.853493E2,9.0182806E2,4.757823E2,9.567012E0,4.8888513E2,4.1294293E2,7.190126E1,4.0388104E2,8.384398E0,1.182614E0,4.5928528E2,2.9599863E1,3.8073483E2,3.2208088E1],"tree_param":{"num_deleted":"0","num_feature":"7","num_nodes":"15","size_leaf_vector":"1"}},{"base_weights":[2.4504656E-2,1.0513328E-1,-2.99237E-1,-5.2434635E-1,1.5158515E-1,-4.3460757E-1,4.9512766E-2,-6.55278E-2,-1.9356256E-2,-5.2151093E-3,1.5863355E-2,-1.8841434E-2,-7.237469E-2,1.6108483E-2,-3.0347118E-2],"categories":[],"categories_nodes":[],"categories_segments":[],"categories_sizes":[],"default_left":[0,0,0,0,0,0,0,0,0,0,0,0,0,0,0],"id":70,"left_children":[1,3,5,7,9,11,13,-1,-1,-1,-1,-1,-1,-1,-1],"loss_changes":[3.609384E1,3.2443405E1,1.3038921E1,8.426384E0,3.1307787E1,1.7024422E1,1.0593266E1,0E0,0E0,0E0,0E0,0E0,0E0,0E0,0E0],"parents":[2147483647,0,0,1,1,2,2,3,3,4,4,5,5,6,6],"right_children":[2,4,6,8,10,12,14,-1,-1,-1,-1,-1,-1,-1,-1],"split_conditions":[5.1673055E0,4.5502537E-1,2.5381426E3,2.8861243E-1,1.4284099E3,9.145455E0,2.469351E0,-6.55278E-2,-1.9356256E-2,-5.2151093E-3,1.5863355E-2,-1.8841434E-2,-7.237469E-2,1.6108483E-2,-3.0347118E-2],"split_indices":[3,4,1,4,0,3,2,0,0,0,0,0,0,0,0],"split_type":[0,0,0,0,0,0,0,0,0,0,0,0,0,0,0],"sum_hessian":[1.3805499E3,1.1058185E3,2.747314E2,7.528786E1,1.0305306E3,1.9773322E2,7.6998215E1,1.628083E1,5.9007027E1,3.506675E2,6.798631E2,1.7650941E2,2.1223804E1,5.537276E1,2.162545E1],"tree_param":{"num_deleted":"0","num_feature":"7","num_nodes":"15","size_leaf_vector":"1"}},{"base_weights":[2.3128867E-2,2.8132483E-1,-7.498928E-2,-3.5980365E-3,4.3595374E-1,4.2697703E-4,-4.9861965E-1,1.5165074E-2,-2.0487674E-2,2.9012583E-2,-1.0396289E-3,3.3947914E-3,-3.0767279E-2,-3.263844E-2,2.8618773E-2],"categories":[],"categories_nodes":[],"categories_segments":[],"categories_sizes":[],"default_left":[0,0,0,0,0,0,0,0,0,0,0,0,0,0,0],"id":71,"left_children":[1,3,5,7,9,11,13,-1,-1,-1,-1,-1,-1,-1,-1],"loss_changes":[3.4865345E1,1.6697395E1,3.1867472E1,1.282668E1,7.814499E0,2.678389E1,1.0891769E1,0E0,0E0,0E0,0E0,0E0,0E0,0E0,0E0],"parents":[2147483647,0,0,1,1,2,2,3,3,4,4,5,5,6,6],"right_children":[2,4,6,8,10,12,14,-1,-1,-1,-1,-1,-1,-1,-1],"split_conditions":[9.812264E-1,1.0879337E0,2.6719147E1,8.843349E0,2.8833451E0,5.3788996E-1,4.239912E3,1.5165074E-2,-2.0487674E-2,2.9012583E-2,-1.0396289E-3,3.3947914E-3,-3.0767279E-2,-3.263844E-2,2.8618773E-2],"split_indices":[3,4,6,6,2,5,0,0,0,0,0,0,0,0,0],"split_type":[0,0,0,0,0,0,0,0,0,0,0,0,0,0,0],"sum_hessian":[1.3744104E3,3.7795694E2,9.964534E2,1.333042E2,2.4465274E2,8.467168E2,1.4973668E2,7.597463E1,5.7329563E1,2.1188704E2,3.27657E1,7.6398474E2,8.273203E1,1.4025046E2,9.486221E0],"tree_param":{"num_deleted":"0","num_feature":"7","num_nodes":"15","size_leaf_vector":"1"}},{"base_weights":[2.1965403E-2,-2.426998E-2,5.562151E-1,1.5356408E-1,-1.8122827E-1,6.321879E-1,-3.0022484E-1,1.0670282E-2,-6.2248692E-2,-1.5334601E-2,1.4678267E-2,4.844344E-2,2.6365504E-2,1.3122767E-2,-5.603637E-2],"categories":[],"categories_nodes":[],"categories_segments":[],"categories_sizes":[],"default_left":[0,0,0,0,0,0,0,0,0,0,0,0,0,0,0],"id":72,"left_children":[1,3,5,7,9,11,13,-1,-1,-1,-1,-1,-1,-1,-1],"loss_changes":[3.3875637E1,3.5271233E1,7.2970276E0,2.406636E1,2.5355066E1,3.300827E0,3.6539993E0,0E0,0E0,0E0,0E0,0E0,0E0,0E0,0E0],"parents":[2147483647,0,0,1,1,2,2,3,3,4,4,5,5,6,6],"right_children":[2,4,6,8,10,12,14,-1,-1,-1,-1,-1,-1,-1,-1],"split_conditions":[4.7386147E3,9.468882E-2,3.629662E0,1.0311011E2,5.988825E0,1.617577E0,1.7569014E1,1.0670282E-2,-6.2248692E-2,-1.5334601E-2,1.4678267E-2,4.844344E-2,2.6365504E-2,1.3122767E-2,-5.603637E-2],"split_indices":[1,5,2,6,4,3,6,0,0,0,0,0,0,0,0],"split_type":[0,0,0,0,0,0,0,0,0,0,0,0,0,0,0],"sum_hessian":[1.369868E3,1.2616372E3,1.0823085E2,5.9149445E2,6.7014276E2,9.965273E1,8.578115E0,5.772016E2,1.4292821E1,5.601196E2,1.1002316E2,4.288279E1,5.6769943E1,5.1865664E0,3.3915486E0],"tree_param":{"num_deleted":"0","num_feature":"7","num_nodes":"15","size_leaf_vector":"1"}},{"base_weights":[2.0848118E-2,-1.6871633E-1,1.4573833E-1,-5.45772E-1,-2.8554527E-2,-4.910672E-2,3.3993623E-1,-2.3985052E-2,-8.174752E-2,2.7415525E-2,-6.529856E-3,-8.7599475E-3,2.0167366E-2,2.0865228E-2,-8.47586E-2],"categories":[],"categories_nodes":[],"categories_segments":[],"categories_sizes":[],"default_left":[0,0,0,0,0,0,0,0,0,0,0,0,0,0,0],"id":73,"left_children":[1,3,5,7,9,11,13,-1,-1,-1,-1,-1,-1,-1,-1],"loss_changes":[3.237576E1,2.8690964E1,3.1207045E1,1.5910698E1,1.7215698E1,1.7183214E1,1.8492775E1,0E0,0E0,0E0,0E0,0E0,0E0,0E0,0E0],"parents":[2147483647,0,0,1,1,2,2,3,3,4,4,5,5,6,6],"right_children":[2,4,6,8,10,12,14,-1,-1,-1,-1,-1,-1,-1,-1],"split_conditions":[1.5383972E3,1.7950171E3,1.6530411E3,6.656008E0,2.395898E-2,3.3247935E3,2.3277086E2,-2.3985052E-2,-8.174752E-2,2.7415525E-2,-6.529856E-3,-8.7599475E-3,2.0167366E-2,2.0865228E-2,-8.47586E-2],"split_indices":[0,1,1,3,5,0,6,0,0,0,0,0,0,0,0],"split_type":[0,0,0,0,0,0,0,0,0,0,0,0,0,0,0],"sum_hessian":[1.3654845E3,5.4218256E2,8.2330194E2,1.461429E2,3.9603964E2,4.1133917E2,4.1196277E2,1.2893059E2,1.7212309E1,5.6415802E1,3.3962384E2,3.2731003E2,8.402915E1,4.0740317E2,4.5596285E0],"tree_param":{"num_deleted":"0","num_feature":"7","num_nodes":"15","size_leaf_vector":"1"}},{"base_weights":[1.9711087E-2,7.2850645E-2,-4.1905212E-1,1.1500908E-1,-5.295998E-1,-7.021688E-2,-5.508346E-1,-1.2575026E-3,1.740393E-2,-3.8367335E-2,5.9271725E-3,-3.244557E-2,1.2236594E-2,1.2506954E-2,-3.7794646E-2],"categories":[],"categories_nodes":[],"categories_segments":[],"categories_sizes":[],"default_left":[0,0,0,0,0,0,0,0,0,0,0,0,0,0,0],"id":74,"left_children":[1,3,5,7,9,11,13,-1,-1,-1,-1,-1,-1,-1,-1],"loss_changes":[3.1786028E1,3.0937689E1,6.7318783E0,2.9353611E1,7.1032104E0,5.957545E0,9.028267E0,0E0,0E0,0E0,0E0,0E0,0E0,0E0,0E0],"parents":[2147483647,0,0,1,1,2,2,3,3,4,4,5,5,6,6],"right_children":[2,4,6,8,10,12,14,-1,-1,-1,-1,-1,-1,-1,-1],"split_conditions":[3.2369127E0,7.640346E0,9.5797986E-2,2.2184627E0,5.7444677E0,1.6631246E3,5.9706515E-1,-1.2575026E-3,1.740393E-2,-3.8367335E-2,5.9271725E-3,-3.244557E-2,1.2236594E-2,1.2506954E-2,-3.7794646E-2],"split_indices":[2,3,5,4,4,1,3,0,0,0,0,0,0,0,0],"split_type":[0,0,0,0,0,0,0,0,0,0,0,0,0,0,0],"sum_hessian":[1.3609802E3,1.2146993E3,1.4628087E2,1.1360122E3,7.8687065E1,4.052962E1,1.0575125E2,6.584896E2,4.7752258E2,6.44336E1,1.4253466E1,1.4389617E1,2.6140003E1,1.292367E1,9.282758E1],"tree_param":{"num_deleted":"0","num_feature":"7","num_nodes":"15","size_leaf_vector":"1"}},{"base_weights":[1.8675027E-2,4.0052706E-1,-4.0799677E-2,9.684238E-2,6.069226E-1,-3.8101962E-1,3.6958113E-2,-5.081443E-3,3.7678897E-2,1.3474633E-2,4.2282596E-2,-4.0507317E-2,-7.9952665E-3,5.1131616E-3,-3.5092276E-2],"categories":[],"categories_nodes":[],"categories_segments":[],"categories_sizes":[],"default_left":[0,0,0,0,0,0,0,0,0,0,0,0,0,0,0],"id":75,"left_children":[1,3,5,7,9,11,13,-1,-1,-1,-1,-1,-1,-1,-1],"loss_changes":[3.0819174E1,1.1403692E1,3.1083817E1,7.8696575E0,5.098751E0,1.708253E1,3.2470436E1,0E0,0E0,0E0,0E0,0E0,0E0,0E0,0E0],"parents":[2147483647,0,0,1,1,2,2,3,3,4,4,5,5,6,6],"right_children":[2,4,6,8,10,12,14,-1,-1,-1,-1,-1,-1,-1,-1],"split_conditions":[5.509604E-1,1.7483107E3,1.1017039E3,4.0966716E0,1.0678375E0,2.4606304E3,4.6726517E1,-5.081443E-3,3.7678897E-2,1.3474633E-2,4.2282596E-2,-4.0507317E-2,-7.9952665E-3,5.1131616E-3,-3.5092276E-2],"split_indices":[2,1,0,4,4,1,6,0,0,0,0,0,0,0,0],"split_type":[0,0,0,0,0,0,0,0,0,0,0,0,0,0,0],"sum_hessian":[1.3553235E3,1.8187526E2,1.1734482E3,7.4187325E1,1.07687935E2,2.1757494E2,9.558733E2,5.6368687E1,1.781864E1,2.8682583E1,7.9005356E1,9.189594E1,1.25679E2,8.8549524E2,7.0378075E1],"tree_param":{"num_deleted":"0","num_feature":"7","num_nodes":"15","size_leaf_vector":"1"}},{"base_weights":[1.7751988E-2,-7.2738814E-1,4.815307E-2,-1.1427156E0,-4.9931422E-1,3.0065835E-1,-4.4853132E-2,-1.9299703E-2,-7.2226584E-2,-6.775491E-2,-1.5596319E-2,3.6650136E-2,1.2074391E-2,1.6287884E-3,-2.5294323E-2],"categories":[],"categories_nodes":[],"categories_segments":[],"categories_sizes":[],"default_left":[0,0,0,0,0,0,0,0,0,0,0,0,0,0,0],"id":76,"left_children":[1,3,5,7,9,11,13,-1,-1,-1,-1,-1,-1,-1,-1],"loss_changes":[3.0677597E1,4.4581394E0,3.0557562E1,1.2747879E0,5.2690477E0,1.054595E1,2.7627659E1,0E0,0E0,0E0,0E0,0E0,0E0,0E0,0E0],"parents":[2147483647,0,0,1,1,2,2,3,3,4,4,5,5,6,6],"right_children":[2,4,6,8,10,12,14,-1,-1,-1,-1,-1,-1,-1,-1],"split_conditions":[3.8485122E-1,2.8861243E-1,9.812264E-1,4.5988128E-1,1.1963105E3,6.840675E-1,2.6719147E1,-1.9299703E-2,-7.2226584E-2,-6.775491E-2,-1.5596319E-2,3.6650136E-2,1.2074391E-2,1.6287884E-3,-2.5294323E-2],"split_indices":[4,4,3,3,1,2,6,0,0,0,0,0,0,0,0],"split_type":[0,0,0,0,0,0,0,0,0,0,0,0,0,0,0],"sum_hessian":[1.3516897E3,5.2087296E1,1.2996024E3,1.7042416E1,3.504488E1,3.4923132E2,9.503711E2,2.647665E0,1.4394751E1,7.710393E0,2.7334488E1,7.214365E1,2.7708768E2,8.0286487E2,1.4750626E2],"tree_param":{"num_deleted":"0","num_feature":"7","num_nodes":"15","size_leaf_vector":"1"}},{"base_weights":[1.6719168E-2,-2.5963921E-2,5.2853036E-1,1.843213E-1,-1.4063522E-1,5.9917146E-1,-3.8285843E-1,1.2321904E-2,-6.486613E-2,-1.2893844E-2,1.3039271E-2,4.3243494E-2,8.321538E-3,-6.8441056E-2,2.0135289E-2],"categories":[],"categories_nodes":[],"categories_segments":[],"categories_sizes":[],"default_left":[0,0,0,0,0,0,0,0,0,0,0,0,0,0,0],"id":77,"left_children":[1,3,5,7,9,11,13,-1,-1,-1,-1,-1,-1,-1,-1],"loss_changes":[2.9472927E1,3.0063438E1,6.915476E0,1.7926151E1,2.5050102E1,6.6975555E0,5.2268753E0,0E0,0E0,0E0,0E0,0E0,0E0,0E0,0E0],"parents":[2147483647,0,0,1,1,2,2,3,3,4,4,5,5,6,6],"right_children":[2,4,6,8,10,12,14,-1,-1,-1,-1,-1,-1,-1,-1],"split_conditions":[4.7386147E3,6.579676E-2,9.087758E-1,1.307285E2,5.1209855E0,1.6188866E1,5.688337E0,1.2321904E-2,-6.486613E-2,-1.2893844E-2,1.3039271E-2,4.3243494E-2,8.321538E-3,-6.8441056E-2,2.0135289E-2],"split_indices":[1,5,5,6,4,6,4,0,0,0,0,0,0,0,0],"split_type":[0,0,0,0,0,0,0,0,0,0,0,0,0,0,0],"sum_hessian":[1.3475138E3,1.244663E3,1.0285085E2,4.390048E2,8.056582E2,9.577033E1,7.08052E0,4.298584E2,9.146416E0,6.559512E2,1.4970699E2,7.0914635E1,2.4855694E1,3.0670898E0,4.0134306E0],"tree_param":{"num_deleted":"0","num_feature":"7","num_nodes":"15","size_leaf_vector":"1"}},{"base_weights":[1.58564E-2,-5.6026176E-2,3.0628192E-1,-2.3898968E-1,9.29926E-2,4.405813E-1,2.3216857E-2,-1.1465088E-2,-6.996057E-2,-1.112383E-2,1.3511156E-2,1.553095E-2,3.2873143E-2,-3.0675296E-2,1.2202829E-2],"categories":[],"categories_nodes":[],"categories_segments":[],"categories_sizes":[],"default_left":[0,0,0,0,0,0,0,0,0,0,0,0,0,0,0],"id":78,"left_children":[1,3,5,7,9,11,13,-1,-1,-1,-1,-1,-1,-1,-1],"loss_changes":[2.8085289E1,2.9429707E1,1.0136187E1,1.831787E1,2.440367E1,3.9200706E0,9.312986E0,0E0,0E0,0E0,0E0,0E0,0E0,0E0,0E0],"parents":[2147483647,0,0,1,1,2,2,3,3,4,4,5,5,6,6],"right_children":[2,4,6,8,10,12,14,-1,-1,-1,-1,-1,-1,-1,-1],"split_conditions":[2.893416E3,1.824762E3,2.0949485E0,8.771699E0,1.0820208E3,3.8063572E3,1.0944419E3,-1.1465088E-2,-6.996057E-2,-1.112383E-2,1.3511156E-2,1.553095E-2,3.2873143E-2,-3.0675296E-2,1.2202829E-2],"split_indices":[0,1,2,3,0,0,1,0,0,0,0,0,0,0,0],"split_type":[0,0,0,0,0,0,0,0,0,0,0,0,0,0,0],"sum_hessian":[1.3434823E3,1.07758E3,2.6590234E2,4.8342844E2,5.9415155E2,1.7996298E2,8.593936E1,4.6607513E2,1.7353317E1,1.9713026E2,3.970213E2,8.028231E1,9.968067E1,2.1327465E1,6.46119E1],"tree_param":{"num_deleted":"0","num_feature":"7","num_nodes":"15","size_leaf_vector":"1"}},{"base_weights":[1.5035304E-2,-6.958624E-1,4.3827537E-2,4.3782398E-1,-7.6071197E-1,-1.5567107E-1,1.5218504E-1,4.3274138E-2,-6.961956E-3,-1.1641399E-2,-5.2772533E-2,-2.6193319E-2,-2.7521515E-5,-2.0181655E-3,1.9342171E-2],"categories":[],"categories_nodes":[],"categories_segments":[],"categories_sizes":[],"default_left":[0,0,0,0,0,0,0,0,0,0,0,0,0,0,0],"id":79,"left_children":[1,3,5,7,9,11,13,-1,-1,-1,-1,-1,-1,-1,-1],"loss_changes":[2.7470974E1,